{"learner":{"attributes":{},"feature_names":[],"feature_types":[],"gradient_booster":{"model":{"gbtree_model_param":{"num_parallel_tree":"1","num_trees":"100"},"iteration_indptr":[0,1,2,3,4,5,6,7,8,9,10,11,12,13,14,15,16,17,18,19,20,21,22,23,24,25,26,27,28,29,30,31,32,33,34,35,36,37,38,39,40,41,42,43,44,45,46,47,48,49,50,51,52,53,54,55,56,57,58,59,60,61,62,63,64,65,66,67,68,69,70,71,72,73,74,75,76,77,78,79,80,81,82,83,84,85,86,87,88,89,90,91,92,93,94,95,96,97,98,99,100],"tree_info":[0,0,0,0,0,0,0,0,0,0,0,0,0,0,0,0,0,0,0,0,0,0,0,0,0,0,0,0,0,0,0,0,0,0,0,0,0,0,0,0,0,0,0,0,0,0,0,0,0,0,0,0,0,0,0,0,0,0,0,0,0,0,0,0,0,0,0,0,0,0,0,0,0,0,0,0,0,0,0,0,0,0,0,0,0,0,0,0,0,0,0,0,0,0,0,0,0,0,0,0],"trees":[{"base_weights":[-7.819152E-8,-5.47844E-1,1.2473431E0,-1.0735313E0,1.873117E-1,9.4591314E-1,1.4864616E0,-1.3296165E0,-7.159204E-1,-1.8275225E-1,6.293206E-1,6.919784E-1,1.213498E0,1.2888411E0,1.594178E0,-1.6166353E0,-1.18287E0,-8.154503E-1,-6.0444176E-1,-2.90146E-1,7.427338E-2,5.1976764E-1,1.104934E0,1.3815595E-1,8.771387E-1,3.4418175E-1,1.2489662E0,1.1304339E0,1.4067006E0,1.5092094E0,5.1173043E-1,-5.4892135E-1,-1.5630137E0,-1.3510444E0,-1.1303643E0,-8.4146833E-1,-6.934352E-1,2.8894112E-1,-6.277002E-1,-3.1157053E-1,4.346153E-1,5.297745E-2,4.9133325E-1,3.9908257E-1,6.729206E-1,9.84732E-1,1.4890666E0,-1.1527274E0,2.4549611E-1,5.76644E-1,9.920265E-1,-3.9377785E-1,7.939999E-1,1.1107054E0,1.3699924E0,1.0025581E0,3.6243778E-1,1.3522077E0,4.9824545E-1,1.4095025E0,1.5677031E0,-3.737231E-1,-4.757032E-1,-4.0856475E-1,-1.3632002E-1,-3.408618E-1,-1.3836002E-1,-2.2803628E-1,-2.9167095E-1,-1.2002225E-1,-2.6629236E-1,-5.5350024E-2,1.9163997E-1,-1.1531431E-1,-1.9611613E-1,2.0691872E-2,-9.844774E-2,2.8368E-1,8.961816E-2,2.93364E-2,-5.8210935E-2,4.8533313E-2,2.2163999E-1,9.758622E-2,2.3370768E-1,1.8849017E-1,2.552219E-1,2.5960383E-1,3.64008E-1,4.8589712E-1,2.8145453E-1,-4.4605717E-1,-1.3632002E-1,-1.4800003E-1,1.149189E-1,1.2107645E-1,2.3882352E-1,3.0848157E-1,2.3960768E-1,8.639999E-2,-1.8891431E-1,2.8186664E-1,1.3299999E-1,3.24823E-1,4.30875E-1,2.6095998E-1,4.1832668E-1,2.644345E-1,3.6306208E-1,3.748141E-1,4.498267E-1,1.6367999E-1,4.273741E-1,4.2977896E-1,4.9137866E-1],"categories":[],"categories_nodes":[],"categories_segments":[],"categories_sizes":[],"default_left":[0,0,0,0,0,0,0,0,0,0,0,0,0,0,0,0,0,0,0,0,0,0,0,0,0,0,0,0,0,0,0,0,0,0,0,0,0,0,0,0,0,0,0,0,0,0,0,0,0,0,0,0,0,0,0,0,0,0,0,0,0,0,0,0,0,0,0,0,0,0,0,0,0,0,0,0,0,0,0,0,0,0,0,0,0,0,0,0,0,0,0,0,0,0,0,0,0,0,0,0,0,0,0,0,0,0,0,0,0,0,0,0,0,0,0],"id":0,"left_children":[1,3,5,7,9,11,13,15,17,19,21,23,25,27,29,31,33,35,37,39,41,43,45,47,49,51,53,55,57,59,-1,-1,61,63,65,67,69,71,73,75,77,79,81,83,85,87,89,91,93,95,97,99,101,103,105,107,-1,109,-1,111,113,-1,-1,-1,-1,-1,-1,-1,-1,-1,-1,-1,-1,-1,-1,-1,-1,-1,-1,-1,-1,-1,-1,-1,-1,-1,-1,-1,-1,-1,-1,-1,-1,-1,-1,-1,-1,-1,-1,-1,-1,-1,-1,-1,-1,-1,-1,-1,-1,-1,-1,-1,-1,-1,-1],"loss_changes":[5.4681616E3,2.1489297E3,1.7460718E2,2.9594702E2,3.7943747E2,7.2749084E1,2.6895508E1,7.760864E1,1.4541443E1,3.4884068E1,5.450058E1,5.7099457E1,1.578833E1,7.4646606E0,5.7316895E0,4.407593E0,9.536743E0,1.6800232E0,1.3542099E1,1.3970573E1,3.2868364E0,1.5645538E1,7.629837E0,1.982046E1,1.3858643E1,7.615507E0,6.928589E0,8.94989E-1,1.5484619E0,7.414551E-1,0E0,0E0,1.7276611E0,2.2285156E0,3.232666E0,5.462738E0,7.1082726E0,2.9336972E0,3.7183838E0,5.4894104E0,1.5228782E0,3.9594774E0,1.3484507E0,1.3316963E1,2.4646301E0,3.1261597E0,1.7177811E0,1.8910246E0,1.350362E1,4.159691E0,1.2879944E0,1.6290642E0,2.9804516E-1,6.387024E-1,2.0248413E0,1.0960159E0,0E0,1.6234436E0,0E0,1.7888184E0,5.9472656E-1,0E0,0E0,0E0,0E0,0E0,0E0,0E0,0E0,0E0,0E0,0E0,0E0,0E0,0E0,0E0,0E0,0E0,0E0,0E0,0E0,0E0,0E0,0E0,0E0,0E0,0E0,0E0,0E0,0E0,0E0,0E0,0E0,0E0,0E0,0E0,0E0,0E0,0E0,0E0,0E0,0E0,0E0,0E0,0E0,0E0,0E0,0E0,0E0,0E0,0E0,0E0,0E0,0E0,0E0],"parents":[2147483647,0,0,1,1,2,2,3,3,4,4,5,5,6,6,7,7,8,8,9,9,10,10,11,11,12,12,13,13,14,14,15,15,16,16,17,17,18,18,19,19,20,20,21,21,22,22,23,23,24,24,25,25,26,26,27,27,28,28,29,29,32,32,33,33,34,34,35,35,36,36,37,37,38,38,39,39,40,40,41,41,42,42,43,43,44,44,45,45,46,46,47,47,48,48,49,49,50,50,51,51,52,52,53,53,54,54,55,55,57,57,59,59,60,60],"right_children":[2,4,6,8,10,12,14,16,18,20,22,24,26,28,30,32,34,36,38,40,42,44,46,48,50,52,54,56,58,60,-1,-1,62,64,66,68,70,72,74,76,78,80,82,84,86,88,90,92,94,96,98,100,102,104,106,108,-1,110,-1,112,114,-1,-1,-1,-1,-1,-1,-1,-1,-1,-1,-1,-1,-1,-1,-1,-1,-1,-1,-1,-1,-1,-1,-1,-1,-1,-1,-1,-1,-1,-1,-1,-1,-1,-1,-1,-1,-1,-1,-1,-1,-1,-1,-1,-1,-1,-1,-1,-1,-1,-1,-1,-1,-1,-1],"split_conditions":[1.7314396E0,3.041728E0,3.2761512E0,2.7857497E0,3.334054E0,2.03234E0,1.9414268E0,2.4534056E0,2.9184928E0,3.2333615E0,3.7178712E0,2.8778744E0,2.5092402E0,3.52612E0,3.5613627E0,2.0936208E0,2.5543501E0,1.4665015E0,1.1514208E0,1.6459411E0,1.657419E0,3.4997878E0,3.9666448E0,2.4534056E0,1.8276017E0,2.2825203E0,3.016459E0,3.3829286E0,3.9666448E0,2.0842397E0,5.1173043E-1,-5.4892135E-1,1.1733699E0,1.657419E0,1.6969728E0,1.3346682E0,1.5280662E0,2.9811695E0,1.2224113E0,1.1680775E0,3.0487401E0,3.3149545E0,3.2842987E0,1.5222278E0,1.4910877E0,1.4403924E0,1.5495069E0,2.3186862E0,1.7926782E0,3.1622806E0,3.2333615E0,2.0842397E0,2.3827243E0,2.663628E0,2.0463483E0,1.8960696E0,3.6243778E-1,1.864084E0,4.9824545E-1,3.2801268E0,3.3664336E0,-3.737231E-1,-4.757032E-1,-4.0856475E-1,-1.3632002E-1,-3.408618E-1,-1.3836002E-1,-2.2803628E-1,-2.9167095E-1,-1.2002225E-1,-2.6629236E-1,-5.5350024E-2,1.9163997E-1,-1.1531431E-1,-1.9611613E-1,2.0691872E-2,-9.844774E-2,2.8368E-1,8.961816E-2,2.93364E-2,-5.8210935E-2,4.8533313E-2,2.2163999E-1,9.758622E-2,2.3370768E-1,1.8849017E-1,2.552219E-1,2.5960383E-1,3.64008E-1,4.8589712E-1,2.8145453E-1,-4.4605717E-1,-1.3632002E-1,-1.4800003E-1,1.149189E-1,1.2107645E-1,2.3882352E-1,3.0848157E-1,2.3960768E-1,8.639999E-2,-1.8891431E-1,2.8186664E-1,1.3299999E-1,3.24823E-1,4.30875E-1,2.6095998E-1,4.1832668E-1,2.644345E-1,3.6306208E-1,3.748141E-1,4.498267E-1,1.6367999E-1,4.273741E-1,4.2977896E-1,4.9137866E-1],"split_indices":[1,0,0,0,0,1,1,0,0,0,0,0,0,0,0,0,0,1,1,1,1,0,0,0,1,1,0,0,0,1,0,0,1,1,1,1,1,0,1,1,0,0,0,1,1,1,1,0,1,0,0,1,0,1,1,1,0,1,0,0,0,0,0,0,0,0,0,0,0,0,0,0,0,0,0,0,0,0,0,0,0,0,0,0,0,0,0,0,0,0,0,0,0,0,0,0,0,0,0,0,0,0,0,0,0,0,0,0,0,0,0,0,0,0,0],"split_type":[0,0,0,0,0,0,0,0,0,0,0,0,0,0,0,0,0,0,0,0,0,0,0,0,0,0,0,0,0,0,0,0,0,0,0,0,0,0,0,0,0,0,0,0,0,0,0,0,0,0,0,0,0,0,0,0,0,0,0,0,0,0,0,0,0,0,0,0,0,0,0,0,0,0,0,0,0,0,0,0,0,0,0,0,0,0,0,0,0,0,0,0,0,0,0,0,0,0,0,0,0,0,0,0,0,0,0,0,0,0,0,0,0,0,0],"sum_hessian":[8E3,5.559E3,2.441E3,3.241E3,2.318E3,1.082E3,1.359E3,1.887E3,1.354E3,1.262E3,1.056E3,5.57E2,5.25E2,4.84E2,8.75E2,6.35E2,1.252E3,7.12E2,6.42E2,8.9E2,3.72E2,8.6E2,1.96E2,1.4E2,4.17E2,2.1E1,5.04E2,2.11E2,2.73E2,5.05E2,3.7E2,1.21E2,5.14E2,2.92E2,9.6E2,5.82E2,1.3E2,1.6E1,6.26E2,8.65E2,2.5E1,3.55E2,1.7E1,4.83E2,3.77E2,1.52E2,4.4E1,1E1,1.3E2,1.17E2,3E2,8E0,1.3E1,2.4E2,2.64E2,8.5E1,1.26E2,2.3E2,4.3E1,1.96E2,3.09E2,3.8E1,4.76E2,2.88E2,4E0,9.51E2,9E0,3.63E2,2.19E2,5.3E1,7.7E1,7E0,9E0,6.2E1,5.64E2,3.6E1,8.29E2,4E0,2.1E1,3.01E2,5.4E1,8E0,9E0,4.06E2,7.7E1,3.05E2,7.2E1,1.03E2,4.9E1,3.4E1,1E1,6E0,4E0,2E1,1.1E2,6.7E1,5E1,2.49E2,5.1E1,2E0,6E0,8E0,5E0,2.25E2,1.5E1,1.4E1,2.5E2,5.7E1,2.8E1,1.41E2,8.9E1,4E0,1.92E2,1.13E2,1.96E2],"tree_param":{"num_deleted":"0","num_feature":"2","num_nodes":"115","size_leaf_vector":"1"}},{"base_weights":[6.9686526E-4,-3.8363478E-1,8.7575144E-1,-7.4337596E-1,1.4749862E-1,6.640228E-1,1.043712E0,-9.9941313E-1,-5.526399E-1,-1.14721395E-1,4.4257367E-1,4.849092E-1,8.527706E-1,9.069575E-1,1.118235E0,-1.1338433E0,-8.8837713E-1,-7.2738725E-1,-4.8009932E-1,-1.908955E-1,5.2638233E-2,3.873628E-1,9.447715E-1,-9.199598E-2,5.7884794E-1,4.4478422E-1,8.9280945E-1,8.587406E-1,3.362028E-1,1.0616038E0,3.5962301E-1,-4.4102287E-1,-1.1147722E0,-8.268422E-1,-9.700303E-1,-7.338773E-1,2.1407199E-1,-5.322404E-1,-3.465022E-1,-2.0814152E-1,2.8549248E-1,3.4507784E-1,2.6981758E-2,2.8004235E-1,4.9682298E-1,8.2492E-1,1.115911E0,-2.8809717E-1,6.259125E-2,3.2812527E-1,6.4732414E-1,5.313502E-1,9.743366E-2,6.9468784E-1,9.2623323E-1,7.09087E-1,8.968723E-1,9.9813604E-1,3.357515E-1,-2.7860406E-1,-3.3809507E-1,-2.5056973E-1,-5.2603874E-2,-2.9828817E-1,-1.7587459E-1,-1.9988711E-1,-2.3404522E-1,-1.6322382E-1,-8.145772E-2,8.902362E-2,-1.1488837E-1,1.0630539E-1,-6.584571E-2,-3.268589E-4,1.3091475E-1,3.4068216E-2,3.7566587E-1,5.969722E-4,8.951291E-2,6.838231E-2,1.6449425E-1,2.0561963E-1,1.3641505E-1,2.7154654E-1,1.0462565E-1,5.2798197E-2,3.5620916E-1,-2.0714973E-1,5.2353486E-2,-1.1742403E-2,1.330156E-1,1.2022181E-1,2.0491458E-1,1.0720012E-1,3.215104E-1,-1.6338518E-1,1.2188397E-1,2.1863069E-1,-2.2621E-2,2.5616893E-1,3.168389E-1,2.2245468E-1,1.0477559E-1,2.7310386E-1,1.7001104E-1,3.4712332E-1,2.911534E-1],"categories":[],"categories_nodes":[],"categories_segments":[],"categories_sizes":[],"default_left":[0,0,0,0,0,0,0,0,0,0,0,0,0,0,0,0,0,0,0,0,0,0,0,0,0,0,0,0,0,0,0,0,0,0,0,0,0,0,0,0,0,0,0,0,0,0,0,0,0,0,0,0,0,0,0,0,0,0,0,0,0,0,0,0,0,0,0,0,0,0,0,0,0,0,0,0,0,0,0,0,0,0,0,0,0,0,0,0,0,0,0,0,0,0,0,0,0,0,0,0,0,0,0,0,0,0,0],"id":1,"left_children":[1,3,5,7,9,11,13,15,17,19,21,23,25,27,29,31,33,35,37,39,41,43,45,47,49,51,53,55,-1,57,-1,-1,59,61,63,65,-1,67,69,71,73,75,77,79,81,83,85,-1,87,89,91,93,95,97,99,101,103,105,-1,-1,-1,-1,-1,-1,-1,-1,-1,-1,-1,-1,-1,-1,-1,-1,-1,-1,-1,-1,-1,-1,-1,-1,-1,-1,-1,-1,-1,-1,-1,-1,-1,-1,-1,-1,-1,-1,-1,-1,-1,-1,-1,-1,-1,-1,-1,-1,-1],"loss_changes":[2.6911614E3,1.0624619E3,8.6149536E1,1.613374E2,1.7383409E2,3.6199768E1,1.2846069E1,2.0098877E1,2.3760986E1,1.5180726E1,2.8941238E1,3.0293365E1,8.195251E0,4.035492E0,2.7214355E0,2.439392E0,3.1119995E0,5.723358E0,9.198639E0,6.7799454E0,2.7892966E0,1.106781E1,1.2126389E0,1.0664467E1,8.028488E0,1.4215965E0,2.5218506E0,1.6466675E0,0E0,7.9382324E-1,0E0,0E0,3.3050537E-1,2.318756E0,2.480713E0,1.2127991E0,0E0,2.8370056E0,9.048912E0,5.118782E0,1.254504E0,6.158362E0,2.332639E0,6.6400375E0,3.4281769E0,2.167675E0,2.4774208E0,0E0,5.851958E0,4.4621286E0,3.038498E0,3.284215E0,2.402512E0,1.9708786E0,2.913086E0,7.445526E-1,8.8542175E-1,9.82666E-3,0E0,0E0,0E0,0E0,0E0,0E0,0E0,0E0,0E0,0E0,0E0,0E0,0E0,0E0,0E0,0E0,0E0,0E0,0E0,0E0,0E0,0E0,0E0,0E0,0E0,0E0,0E0,0E0,0E0,0E0,0E0,0E0,0E0,0E0,0E0,0E0,0E0,0E0,0E0,0E0,0E0,0E0,0E0,0E0,0E0,0E0,0E0,0E0,0E0],"parents":[2147483647,0,0,1,1,2,2,3,3,4,4,5,5,6,6,7,7,8,8,9,9,10,10,11,11,12,12,13,13,14,14,15,15,16,16,17,17,18,18,19,19,20,20,21,21,22,22,23,23,24,24,25,25,26,26,27,27,29,29,32,32,33,33,34,34,35,35,37,37,38,38,39,39,40,40,41,41,42,42,43,43,44,44,45,45,46,46,48,48,49,49,50,50,51,51,52,52,53,53,54,54,55,55,56,56,57,57],"right_children":[2,4,6,8,10,12,14,16,18,20,22,24,26,28,30,32,34,36,38,40,42,44,46,48,50,52,54,56,-1,58,-1,-1,60,62,64,66,-1,68,70,72,74,76,78,80,82,84,86,-1,88,90,92,94,96,98,100,102,104,106,-1,-1,-1,-1,-1,-1,-1,-1,-1,-1,-1,-1,-1,-1,-1,-1,-1,-1,-1,-1,-1,-1,-1,-1,-1,-1,-1,-1,-1,-1,-1,-1,-1,-1,-1,-1,-1,-1,-1,-1,-1,-1,-1,-1,-1,-1,-1,-1,-1],"split_conditions":[1.7314396E0,3.0545764E0,3.2761512E0,2.6816232E0,3.334054E0,2.03234E0,1.9414268E0,2.4534056E0,2.7991185E0,3.2333615E0,3.8428802E0,2.780999E0,2.6885695E0,3.815735E0,3.5796657E0,1.8843069E0,1.353289E0,1.7059596E0,2.98656E0,1.601052E0,1.2207218E0,3.4997878E0,1.4492681E0,1.773061E0,1.8146873E0,2.656505E0,2.077474E0,3.3829286E0,3.362028E-1,2.1141317E0,3.5962301E-1,-4.4102287E-1,1.1680775E0,1.3514183E0,1.6363168E0,1.3041027E0,2.1407199E-1,1.6363168E0,1.1680775E0,1.1352248E0,3.1065924E0,1.2062458E0,1.5914782E0,1.5222278E0,1.2561569E0,1.4101971E0,3.8627446E0,-2.8809717E-1,2.4534056E0,2.9606273E0,2.8778744E0,2.6157634E0,2.6639688E0,3.2661362E0,3.1148736E0,3.370553E0,3.7806244E0,3.3149545E0,3.357515E-1,-2.7860406E-1,-3.3809507E-1,-2.5056973E-1,-5.2603874E-2,-2.9828817E-1,-1.7587459E-1,-1.9988711E-1,-2.3404522E-1,-1.6322382E-1,-8.145772E-2,8.902362E-2,-1.1488837E-1,1.0630539E-1,-6.584571E-2,-3.268589E-4,1.3091475E-1,3.4068216E-2,3.7566587E-1,5.969722E-4,8.951291E-2,6.838231E-2,1.6449425E-1,2.0561963E-1,1.3641505E-1,2.7154654E-1,1.0462565E-1,5.2798197E-2,3.5620916E-1,-2.0714973E-1,5.2353486E-2,-1.1742403E-2,1.330156E-1,1.2022181E-1,2.0491458E-1,1.0720012E-1,3.215104E-1,-1.6338518E-1,1.2188397E-1,2.1863069E-1,-2.2621E-2,2.5616893E-1,3.168389E-1,2.2245468E-1,1.0477559E-1,2.7310386E-1,1.7001104E-1,3.4712332E-1,2.911534E-1],"split_indices":[1,0,0,0,0,1,1,0,0,0,0,0,0,0,0,0,1,1,0,1,1,0,1,1,1,0,1,0,0,1,0,0,1,1,1,1,0,1,1,1,0,1,1,1,1,1,0,0,0,0,0,0,0,0,0,0,0,0,0,0,0,0,0,0,0,0,0,0,0,0,0,0,0,0,0,0,0,0,0,0,0,0,0,0,0,0,0,0,0,0,0,0,0,0,0,0,0,0,0,0,0,0,0,0,0,0,0],"split_type":[0,0,0,0,0,0,0,0,0,0,0,0,0,0,0,0,0,0,0,0,0,0,0,0,0,0,0,0,0,0,0,0,0,0,0,0,0,0,0,0,0,0,0,0,0,0,0,0,0,0,0,0,0,0,0,0,0,0,0,0,0,0,0,0,0,0,0,0,0,0,0,0,0,0,0,0,0,0,0,0,0,0,0,0,0,0,0,0,0,0,0,0,0,0,0,0,0,0,0,0,0,0,0,0,0,0,0],"sum_hessian":[8E3,5.559E3,2.441E3,3.314E3,2.245E3,1.082E3,1.359E3,1.413E3,1.901E3,1.189E3,1.056E3,5.57E2,5.25E2,4.84E2,8.75E2,6.35E2,7.78E2,5.55E2,1.346E3,8.17E2,3.72E2,9.53E2,1.03E2,7.8E1,4.79E2,4.8E1,4.77E2,3.99E2,8.5E1,5.22E2,3.53E2,3E1,6.05E2,4.5E2,3.28E2,5.53E2,2E0,9.66E2,3.8E2,7.89E2,2.8E1,2.9E1,3.43E2,4.83E2,4.7E2,6.4E1,3.9E1,1.1E1,6.7E1,1.04E2,3.75E2,3.8E1,1E1,7.2E1,4.05E2,8.5E1,3.14E2,2.57E2,2.65E2,4.2E1,5.63E2,4.44E2,6E0,3.07E2,2.1E1,2.31E2,3.22E2,9.23E2,4.3E1,2E1,3.6E2,1.5E1,7.74E2,1E1,1.8E1,2.4E1,5E0,3.15E2,2.8E1,4.06E2,7.7E1,8.3E1,3.87E2,5.4E1,1E1,3E0,3.6E1,8E0,5.9E1,2.5E1,7.9E1,4.9E1,3.26E2,3E1,8E0,3E0,7E0,6.9E1,3E0,2.65E2,1.4E2,7.7E1,8E0,3E2,1.4E1,3.2E1,2.25E2],"tree_param":{"num_deleted":"0","num_feature":"2","num_nodes":"107","size_leaf_vector":"1"}},{"base_weights":[9.0092985E-4,-2.711659E-1,6.091729E-1,-5.214644E-1,1.0046818E-1,4.1028935E-1,7.0722514E-1,-7.0800644E-1,-3.912493E-1,-8.410574E-2,3.083925E-1,-1.6935697E-1,4.6299946E-1,6.013702E-1,7.6796234E-1,-7.946309E-1,-6.309463E-1,-4.6413994E-1,-2.939427E-1,-1.4558607E-1,1.7401325E-2,2.5684804E-1,6.011441E-1,-6.4868665E-1,1.253754E-2,3.6985478E-1,5.781836E-1,5.112668E-1,7.057886E-1,6.889891E-1,8.060718E-1,-2.7842858E-1,-7.614066E-1,-6.070718E-1,-8.007249E-1,-5.1655793E-1,-4.0725428E-1,9.485957E-2,-3.1102866E-1,-4.6767782E-2,-2.0456055E-1,1.3471282E-1,-1.2221745E-2,2.2037879E-1,4.1739222E-1,4.243475E-1,6.829753E-1,-7.428331E-1,1.0103878E-1,1.0856532E-1,-5.1718247E-1,1.5691546E-1,4.6224782E-1,2.6211208E-1,6.1548716E-1,2.4648018E-1,4.959484E-1,6.4148533E-1,7.919126E-1,8.3042926E-1,6.4366955E-1,7.663931E-1,8.3929974E-1,-2.3297808E-1,-1.6338867E-1,-2.043857E-1,-1.629808E-1,5.6235697E-3,-2.522783E-1,-1.5967517E-1,-8.004609E-2,-1.6380137E-1,-1.16805345E-1,-1.0925924E-1,7.170774E-2,-9.788602E-2,-1.02354875E-2,-8.8904396E-2,1.1357175E-2,-9.544598E-2,-3.7463482E-2,6.2278297E-2,-1.9148155E-1,-1.5532035E-1,1.6037434E-3,3.0384758E-1,6.43829E-2,-5.7354146E-3,1.5457833E-1,1.5077545E-1,-3.0631694E-1,2.2553816E-1,1.3348728E-1,-1.5248938E-1,-2.8294438E-1,4.132047E-2,4.1469815E-3,2.2798295E-1,1.2710501E-2,4.612863E-4,-2.4861662E-1,-2.1918517E-1,5.9680205E-2,1.8059506E-1,1.3127427E-1,-1.0776876E-1,1.2571982E-1,1.7747524E-1,2.626689E-1,1.0227456E-1,1.6353558E-1,1.6479777E-1,2.1652831E-1,2.451754E-1,1.7933059E-1,9.418588E-2,2.5388062E-1,1.6787899E-1,2.1858348E-1,2.0201063E-1,2.4673988E-1,2.7494237E-1,2.4339612E-1],"categories":[],"categories_nodes":[],"categories_segments":[],"categories_sizes":[],"default_left":[0,0,0,0,0,0,0,0,0,0,0,0,0,0,0,0,0,0,0,0,0,0,0,0,0,0,0,0,0,0,0,0,0,0,0,0,0,0,0,0,0,0,0,0,0,0,0,0,0,0,0,0,0,0,0,0,0,0,0,0,0,0,0,0,0,0,0,0,0,0,0,0,0,0,0,0,0,0,0,0,0,0,0,0,0,0,0,0,0,0,0,0,0,0,0,0,0,0,0,0,0,0,0,0,0,0,0,0,0,0,0,0,0,0,0,0,0,0,0,0,0,0,0],"id":2,"left_children":[1,3,5,7,9,11,13,15,17,19,21,23,25,27,29,31,33,35,37,39,41,43,45,47,49,51,53,55,57,59,61,-1,63,65,67,69,71,73,75,77,79,81,83,85,87,89,91,93,95,97,99,101,103,105,107,-1,109,111,113,115,117,119,121,-1,-1,-1,-1,-1,-1,-1,-1,-1,-1,-1,-1,-1,-1,-1,-1,-1,-1,-1,-1,-1,-1,-1,-1,-1,-1,-1,-1,-1,-1,-1,-1,-1,-1,-1,-1,-1,-1,-1,-1,-1,-1,-1,-1,-1,-1,-1,-1,-1,-1,-1,-1,-1,-1,-1,-1,-1,-1,-1,-1],"loss_changes":[1.3242556E3,5.1435693E2,4.793579E1,7.9979126E1,8.545405E1,2.5101517E1,1.0178772E1,8.557007E0,1.3680206E1,7.3665457E0,1.5644524E1,6.024066E0,7.8434753E0,5.359482E0,2.5986938E0,2.1091003E0,2.4444885E0,3.1054382E0,5.589737E0,4.273834E0,1.5515529E0,5.1306114E0,1.9671097E0,1.4161501E0,2.650408E0,8.151241E0,3.7767334E0,1.1613007E0,1.0371399E0,1.6961823E0,2.8097534E-1,0E0,1.2692566E0,2.6508179E0,2.8490295E0,2.111435E0,1.1238403E0,2.469551E0,3.377411E0,5.8405414E0,4.1238785E0,5.2027674E0,3.1731503E0,3.1154175E0,7.0160522E0,6.3935604E0,1.3853912E0,3.192749E-1,7.697465E-3,1.8650496E0,1.2940891E0,4.918826E0,7.396202E-1,3.7588527E0,1.3345795E0,0E0,2.2306519E0,8.242111E-1,7.720184E-2,3.9694595E-1,1.5061417E0,1.1727295E0,5.7556152E-2,0E0,0E0,0E0,0E0,0E0,0E0,0E0,0E0,0E0,0E0,0E0,0E0,0E0,0E0,0E0,0E0,0E0,0E0,0E0,0E0,0E0,0E0,0E0,0E0,0E0,0E0,0E0,0E0,0E0,0E0,0E0,0E0,0E0,0E0,0E0,0E0,0E0,0E0,0E0,0E0,0E0,0E0,0E0,0E0,0E0,0E0,0E0,0E0,0E0,0E0,0E0,0E0,0E0,0E0,0E0,0E0,0E0,0E0,0E0,0E0],"parents":[2147483647,0,0,1,1,2,2,3,3,4,4,5,5,6,6,7,7,8,8,9,9,10,10,11,11,12,12,13,13,14,14,15,15,16,16,17,17,18,18,19,19,20,20,21,21,22,22,23,23,24,24,25,25,26,26,27,27,28,28,29,29,30,30,32,32,33,33,34,34,35,35,36,36,37,37,38,38,39,39,40,40,41,41,42,42,43,43,44,44,45,45,46,46,47,47,48,48,49,49,50,50,51,51,52,52,53,53,54,54,56,56,57,57,58,58,59,59,60,60,61,61,62,62],"right_children":[2,4,6,8,10,12,14,16,18,20,22,24,26,28,30,32,34,36,38,40,42,44,46,48,50,52,54,56,58,60,62,-1,64,66,68,70,72,74,76,78,80,82,84,86,88,90,92,94,96,98,100,102,104,106,108,-1,110,112,114,116,118,120,122,-1,-1,-1,-1,-1,-1,-1,-1,-1,-1,-1,-1,-1,-1,-1,-1,-1,-1,-1,-1,-1,-1,-1,-1,-1,-1,-1,-1,-1,-1,-1,-1,-1,-1,-1,-1,-1,-1,-1,-1,-1,-1,-1,-1,-1,-1,-1,-1,-1,-1,-1,-1,-1,-1,-1,-1,-1,-1,-1,-1],"split_conditions":[1.7172546E0,3.0545764E0,3.1622806E0,2.6698515E0,3.334054E0,1.7926782E0,1.9414268E0,2.4534056E0,2.8932421E0,3.2148237E0,3.768149E0,2.780999E0,2.0842397E0,3.52612E0,3.3664336E0,2.0936208E0,2.6498654E0,2.7936678E0,1.1680775E0,1.3020958E0,1.2707082E0,1.495637E0,1.3392572E0,1.773061E0,1.7839094E0,2.854343E0,2.6639688E0,3.1779282E0,1.8560796E0,3.225968E0,3.5613627E0,-2.7842858E-1,1.5712497E0,2.5543501E0,1.1905526E0,1.5712497E0,1.2028E0,1.1277101E0,1.6125777E0,1.2156948E0,3.1148736E0,3.3194642E0,1.2777665E0,1.1277101E0,3.3829286E0,1.3367583E0,1.5577962E0,2.6273088E0,2.4074314E0,2.8279023E0,2.9397025E0,2.4074314E0,2.9435856E0,2.1938505E0,2.663628E0,2.4648018E-1,3.2568948E0,3.7304118E0,1.9324065E0,1.9523134E0,2.144663E0,2.077474E0,3.6360617E0,-2.3297808E-1,-1.6338867E-1,-2.043857E-1,-1.629808E-1,5.6235697E-3,-2.522783E-1,-1.5967517E-1,-8.004609E-2,-1.6380137E-1,-1.16805345E-1,-1.0925924E-1,7.170774E-2,-9.788602E-2,-1.02354875E-2,-8.8904396E-2,1.1357175E-2,-9.544598E-2,-3.7463482E-2,6.2278297E-2,-1.9148155E-1,-1.5532035E-1,1.6037434E-3,3.0384758E-1,6.43829E-2,-5.7354146E-3,1.5457833E-1,1.5077545E-1,-3.0631694E-1,2.2553816E-1,1.3348728E-1,-1.5248938E-1,-2.8294438E-1,4.132047E-2,4.1469815E-3,2.2798295E-1,1.2710501E-2,4.612863E-4,-2.4861662E-1,-2.1918517E-1,5.9680205E-2,1.8059506E-1,1.3127427E-1,-1.0776876E-1,1.2571982E-1,1.7747524E-1,2.626689E-1,1.0227456E-1,1.6353558E-1,1.6479777E-1,2.1652831E-1,2.451754E-1,1.7933059E-1,9.418588E-2,2.5388062E-1,1.6787899E-1,2.1858348E-1,2.0201063E-1,2.4673988E-1,2.7494237E-1,2.4339612E-1],"split_indices":[1,0,0,0,0,1,1,0,0,0,0,0,1,0,0,0,0,0,1,1,1,1,1,1,1,0,0,0,1,0,0,0,1,0,1,1,1,1,1,1,0,0,1,1,0,1,1,0,0,0,0,0,0,1,1,0,0,0,1,1,1,1,0,0,0,0,0,0,0,0,0,0,0,0,0,0,0,0,0,0,0,0,0,0,0,0,0,0,0,0,0,0,0,0,0,0,0,0,0,0,0,0,0,0,0,0,0,0,0,0,0,0,0,0,0,0,0,0,0,0,0,0,0],"split_type":[0,0,0,0,0,0,0,0,0,0,0,0,0,0,0,0,0,0,0,0,0,0,0,0,0,0,0,0,0,0,0,0,0,0,0,0,0,0,0,0,0,0,0,0,0,0,0,0,0,0,0,0,0,0,0,0,0,0,0,0,0,0,0,0,0,0,0,0,0,0,0,0,0,0,0,0,0,0,0,0,0,0,0,0,0,0,0,0,0,0,0,0,0,0,0,0,0,0,0,0,0,0,0,0,0,0,0,0,0,0,0,0,0,0,0,0,0,0,0,0,0,0,0],"sum_hessian":[8E3,5.528E3,2.472E3,3.303E3,2.225E3,8.18E2,1.654E3,1.356E3,1.947E3,1.179E3,1.046E3,6.8E1,7.5E2,6.07E2,1.047E3,6.34E2,7.22E2,1.111E3,8.36E2,7.34E2,4.45E2,8.91E2,1.55E2,1.8E1,5E1,4.17E2,3.33E2,3.29E2,2.78E2,3.47E2,7E2,1.21E2,5.13E2,6.37E2,8.5E1,5.74E2,5.37E2,3.5E1,8.01E2,2.75E2,4.59E2,8.9E1,3.56E2,7.28E2,1.63E2,5.1E1,1.04E2,1.6E1,2E0,4.3E1,7E0,1.27E2,2.9E2,3.6E1,2.97E2,1.3E1,3.16E2,1.64E2,1.14E2,8E1,2.67E2,3.3E2,3.7E2,4.77E2,3.6E1,2.9E2,3.47E2,4E0,8.1E1,5.39E2,3.5E1,5.8E1,4.79E2,8E0,2.7E1,7.59E2,4.2E1,6.9E1,2.06E2,1.88E2,2.71E2,8.2E1,7E0,1.1E1,3.45E2,4E0,7.24E2,3E1,1.33E2,4.9E1,2E0,7.9E1,2.5E1,9E0,7E0,1E0,1E0,3E0,4E1,3E0,4E0,5E0,1.22E2,4E1,2.5E2,7E0,2.9E1,2.75E2,2.2E1,7.8E1,2.38E2,8E1,8.4E1,9.8E1,1.6E1,3E0,7.7E1,1.38E2,1.29E2,1.29E2,2.01E2,9E1,2.8E2],"tree_param":{"num_deleted":"0","num_feature":"2","num_nodes":"123","size_leaf_vector":"1"}},{"base_weights":[8.187747E-4,-1.8840824E-1,4.3165472E-1,-3.8867372E-1,4.4568125E-2,2.9097417E-1,4.9688354E-1,-4.9649796E-1,-2.9840535E-1,-8.865321E-2,2.0720232E-1,2.8063154E-2,3.428639E-1,4.1003048E-1,5.348136E-1,-5.9251004E-1,-4.564842E-1,-3.6221284E-1,-2.6319155E-1,-9.816775E-2,2.3236218E-1,1.6201527E-1,3.9593714E-1,-2.178501E-1,7.729084E-2,1.3984707E-1,3.7535793E-1,2.69041E-1,4.6147153E-1,5.084627E-1,5.9127885E-1,-6.4069116E-1,-5.277278E-1,-4.2455465E-1,-5.0494474E-1,-3.914598E-1,-2.8868032E-1,-1.1908213E-1,-2.8298306E-1,-1.22630864E-1,6.1285333E-3,3.18012E-1,-1.6069478E-1,-1.347123E-2,1.8468177E-1,6.6865677E-1,3.2128313E-1,4.1035086E-1,3.0316845E-2,-1.3856563E-1,2.8600305E-1,3.0941683E-1,4.3654475E-1,2.9177353E-1,-2.0131111E-1,4.3939236E-1,6.2954205E-1,4.898198E-1,5.778564E-1,6.790024E-1,5.705244E-1,-1.47733E-1,-2.0917986E-1,-3.605497E-2,-1.6790704E-1,-1.4876594E-1,-1.13692395E-1,-2.183259E-1,-1.4202417E-1,-1.01896696E-1,-1.7480385E-1,-6.618341E-2,-1.7132378E-1,-7.273003E-2,2.1235378E-1,-2.4522562E-1,-8.305392E-2,3.2817505E-2,-4.002568E-2,7.9750784E-2,-2.7541118E-2,7.42542E-2,1.8172511E-1,-1.1810567E-1,1.076555E-1,5.1305544E-2,-1.2601128E-1,1.19013116E-1,5.0107606E-2,1.445128E-1,2.367886E-1,-6.121596E-2,1.3158801E-1,-2.0790685E-2,2.2134598E-1,-2.1754527E-1,3.703927E-2,4.5180853E-4,-2.2373818E-1,1.2946264E-2,1.1199929E-1,1.06697366E-1,4.8787426E-2,1.2014702E-1,1.5567276E-1,1.6072994E-1,7.467735E-2,6.335437E-2,-1.690427E-1,1.0464973E-1,1.4319408E-1,2.0832711E-1,1.3644348E-1,1.2520188E-1,1.5470628E-1,2.4617589E-1,1.6145095E-1,-5.4159164E-3,2.0710601E-1,1.2382415E-1,1.7971575E-1],"categories":[],"categories_nodes":[],"categories_segments":[],"categories_sizes":[],"default_left":[0,0,0,0,0,0,0,0,0,0,0,0,0,0,0,0,0,0,0,0,0,0,0,0,0,0,0,0,0,0,0,0,0,0,0,0,0,0,0,0,0,0,0,0,0,0,0,0,0,0,0,0,0,0,0,0,0,0,0,0,0,0,0,0,0,0,0,0,0,0,0,0,0,0,0,0,0,0,0,0,0,0,0,0,0,0,0,0,0,0,0,0,0,0,0,0,0,0,0,0,0,0,0,0,0,0,0,0,0,0,0,0,0,0,0,0,0,0,0,0,0],"id":3,"left_children":[1,3,5,7,9,11,13,15,17,19,21,23,25,27,29,31,33,35,37,39,41,43,45,-1,47,49,51,53,55,57,59,61,63,65,67,69,71,73,75,77,79,81,83,85,87,89,91,93,95,97,99,101,103,105,107,109,111,113,115,117,119,-1,-1,-1,-1,-1,-1,-1,-1,-1,-1,-1,-1,-1,-1,-1,-1,-1,-1,-1,-1,-1,-1,-1,-1,-1,-1,-1,-1,-1,-1,-1,-1,-1,-1,-1,-1,-1,-1,-1,-1,-1,-1,-1,-1,-1,-1,-1,-1,-1,-1,-1,-1,-1,-1,-1,-1,-1,-1,-1,-1],"loss_changes":[6.523692E2,2.594309E2,2.2264282E1,2.8953888E1,5.5722538E1,1.05768585E1,5.2723694E0,4.9582214E0,3.5671234E0,4.34161E0,9.811703E0,4.8457675E0,4.2222595E0,3.581955E0,1.4208679E0,9.010315E-1,1.2787933E0,1.1278915E0,2.972458E0,3.5063906E0,1.4313784E0,3.7255821E0,4.325367E0,0E0,1.8962686E0,3.7425737E0,2.1163101E0,1.5449648E0,1.1075287E0,7.467346E-1,2.7169037E-1,1.5269623E0,2.2122993E0,1.7238312E0,2.3110504E0,3.8635406E0,3.1034098E0,1.3329946E1,2.810669E0,2.800518E0,6.6880426E0,5.397577E-1,1.1096709E0,8.172624E0,3.037241E0,6.7978287E-1,1.1000639E1,2.407206E0,7.689473E0,2.7228982E0,1.2563372E0,1.7884483E0,6.444588E-1,1.2571316E0,1.1647261E0,9.7707367E-1,1.4897728E-1,9.7346497E-1,1.128582E0,5.188446E-1,1.0985718E0,0E0,0E0,0E0,0E0,0E0,0E0,0E0,0E0,0E0,0E0,0E0,0E0,0E0,0E0,0E0,0E0,0E0,0E0,0E0,0E0,0E0,0E0,0E0,0E0,0E0,0E0,0E0,0E0,0E0,0E0,0E0,0E0,0E0,0E0,0E0,0E0,0E0,0E0,0E0,0E0,0E0,0E0,0E0,0E0,0E0,0E0,0E0,0E0,0E0,0E0,0E0,0E0,0E0,0E0,0E0,0E0,0E0,0E0,0E0,0E0],"parents":[2147483647,0,0,1,1,2,2,3,3,4,4,5,5,6,6,7,7,8,8,9,9,10,10,11,11,12,12,13,13,14,14,15,15,16,16,17,17,18,18,19,19,20,20,21,21,22,22,24,24,25,25,26,26,27,27,28,28,29,29,30,30,31,31,32,32,33,33,34,34,35,35,36,36,37,37,38,38,39,39,40,40,41,41,42,42,43,43,44,44,45,45,46,46,47,47,48,48,49,49,50,50,51,51,52,52,53,53,54,54,55,55,56,56,57,57,58,58,59,59,60,60],"right_children":[2,4,6,8,10,12,14,16,18,20,22,24,26,28,30,32,34,36,38,40,42,44,46,-1,48,50,52,54,56,58,60,62,64,66,68,70,72,74,76,78,80,82,84,86,88,90,92,94,96,98,100,102,104,106,108,110,112,114,116,118,120,-1,-1,-1,-1,-1,-1,-1,-1,-1,-1,-1,-1,-1,-1,-1,-1,-1,-1,-1,-1,-1,-1,-1,-1,-1,-1,-1,-1,-1,-1,-1,-1,-1,-1,-1,-1,-1,-1,-1,-1,-1,-1,-1,-1,-1,-1,-1,-1,-1,-1,-1,-1,-1,-1,-1,-1,-1,-1,-1,-1],"split_conditions":[1.7314396E0,2.996931E0,3.1528323E0,2.6698515E0,3.3061993E0,1.8560796E0,1.9166368E0,2.3381314E0,2.7936678E0,1.6459411E0,3.6985953E0,2.4534056E0,2.7146122E0,3.334054E0,3.5882065E0,1.3332403E0,1.3691128E0,1.4055228E0,1.2224113E0,3.2333615E0,3.249776E0,1.2320113E0,1.2754644E0,-2.178501E-1,2.7146122E0,2.027236E0,2.077474E0,3.328934E0,3.9666448E0,2.2661066E0,3.6360617E0,1.2028E0,1.3497745E0,1.2444092E0,1.3901219E0,1.3475034E0,2.7753327E0,1.2156948E0,1.2245779E0,1.1680775E0,1.2953026E0,3.1966054E0,3.2842987E0,1.2094507E0,1.2542764E0,1.2245779E0,1.3392572E0,1.773061E0,2.789734E0,1.9979262E0,2.4714794E0,2.0182185E0,3.0545764E0,1.773061E0,1.8730652E0,1.8001622E0,4.1777234E0,3.2801268E0,3.2148237E0,1.9248358E0,3.6778507E0,-1.47733E-1,-2.0917986E-1,-3.605497E-2,-1.6790704E-1,-1.4876594E-1,-1.13692395E-1,-2.183259E-1,-1.4202417E-1,-1.01896696E-1,-1.7480385E-1,-6.618341E-2,-1.7132378E-1,-7.273003E-2,2.1235378E-1,-2.4522562E-1,-8.305392E-2,3.2817505E-2,-4.002568E-2,7.9750784E-2,-2.7541118E-2,7.42542E-2,1.8172511E-1,-1.1810567E-1,1.076555E-1,5.1305544E-2,-1.2601128E-1,1.19013116E-1,5.0107606E-2,1.445128E-1,2.367886E-1,-6.121596E-2,1.3158801E-1,-2.0790685E-2,2.2134598E-1,-2.1754527E-1,3.703927E-2,4.5180853E-4,-2.2373818E-1,1.2946264E-2,1.1199929E-1,1.06697366E-1,4.8787426E-2,1.2014702E-1,1.5567276E-1,1.6072994E-1,7.467735E-2,6.335437E-2,-1.690427E-1,1.0464973E-1,1.4319408E-1,2.0832711E-1,1.3644348E-1,1.2520188E-1,1.5470628E-1,2.4617589E-1,1.6145095E-1,-5.4159164E-3,2.0710601E-1,1.2382415E-1,1.7971575E-1],"split_indices":[1,0,0,0,0,1,1,0,0,1,0,0,0,0,0,1,1,1,1,0,0,1,1,0,0,1,1,0,0,1,0,1,1,1,1,1,0,1,1,1,1,0,0,1,1,1,1,1,0,1,0,1,0,1,1,1,0,0,0,1,0,0,0,0,0,0,0,0,0,0,0,0,0,0,0,0,0,0,0,0,0,0,0,0,0,0,0,0,0,0,0,0,0,0,0,0,0,0,0,0,0,0,0,0,0,0,0,0,0,0,0,0,0,0,0,0,0,0,0,0,0],"split_type":[0,0,0,0,0,0,0,0,0,0,0,0,0,0,0,0,0,0,0,0,0,0,0,0,0,0,0,0,0,0,0,0,0,0,0,0,0,0,0,0,0,0,0,0,0,0,0,0,0,0,0,0,0,0,0,0,0,0,0,0,0,0,0,0,0,0,0,0,0,0,0,0,0,0,0,0,0,0,0,0,0,0,0,0,0,0,0,0,0,0,0,0,0,0,0,0,0,0,0,0,0,0,0,0,0,0,0,0,0,0,0,0,0,0,0,0,0,0,0,0,0],"sum_hessian":[8E3,5.559E3,2.441E3,2.989E3,2.57E3,7.75E2,1.666E3,1.36E3,1.629E3,1.413E3,1.157E3,1.28E2,6.47E2,5.1E2,1.156E3,3.96E2,9.64E2,5.76E2,1.053E3,1.373E3,4E1,9.35E2,2.22E2,7E0,1.21E2,9E1,5.57E2,1.38E2,3.72E2,7.95E2,3.61E2,2.22E2,1.74E2,5.87E2,3.77E2,4.09E2,1.67E2,1.28E2,9.25E2,1.112E3,2.61E2,3.3E1,7E0,1.07E2,8.28E2,4.6E1,1.76E2,1.4E1,1.07E2,3.1E1,5.9E1,2.71E2,2.86E2,1.32E2,6E0,3.32E2,4E1,6.33E2,1.62E2,6.3E1,2.98E2,6.4E1,1.58E2,1.3E1,1.61E2,2.25E2,3.62E2,4.4E1,3.33E2,3.24E2,8.5E1,1.36E2,3.1E1,1.12E2,1.6E1,9E0,9.16E2,4.9E1,1.063E3,7.1E1,1.9E2,2.8E1,5E0,5E0,2E0,7.4E1,3.3E1,6.2E1,7.66E2,2E1,2.6E1,3.2E1,1.44E2,6E0,8E0,1.1E1,9.6E1,2.6E1,5E0,1.6E1,4.3E1,2.05E2,6.6E1,2.03E2,8.3E1,1.8E1,1.14E2,3E0,3E0,1.01E2,2.31E2,2.7E1,1.3E1,1.71E2,4.62E2,2E1,1.42E2,1E0,6.2E1,4.8E1,2.5E2],"tree_param":{"num_deleted":"0","num_feature":"2","num_nodes":"121","size_leaf_vector":"1"}},{"base_weights":[6.981494E-4,-1.4023755E-1,2.8873423E-1,-2.5864673E-1,4.4579152E-2,1.16331846E-1,3.3314022E-1,-3.3844832E-1,-1.8753211E-1,-2.4634916E-2,1.8656416E-1,-2.3214656E-1,1.950881E-1,2.7463892E-1,3.7084797E-1,-3.8119268E-1,-2.8120327E-1,-2.2662881E-1,-1.5105069E-1,4.3582368E-1,-3.0224573E-2,1.6776216E-1,5.0376254E-1,1.2608816E-1,-3.597167E-1,8.019147E-2,2.4770544E-1,2.1464036E-1,3.5632387E-1,3.168136E-1,3.909427E-1,-1.803847E-1,-3.7271744E-1,1.3439135E-1,-2.8630897E-1,-5.4352567E-2,-2.3776624E-1,-1.1460296E-2,-1.7067435E-1,-8.541829E-1,7.7326673E-1,-6.8916523E-1,-2.4973078E-2,1.7526406E-1,-3.8684705E-1,5.444341E-1,2.1945834E-2,-1.7631552E-1,2.757814E-1,-7.6117516E-1,-2.8509545E-1,1.3221267E-1,-2.5805998E-1,6.1996764E-1,2.2608908E-1,2.234697E-1,-9.3320504E-2,3.460315E-1,2.113235E-1,2.7752912E-1,3.9332867E-1,3.83145E-1,1.4780183E-1,-1.1930035E-1,-9.5985055E-2,-7.759973E-2,-1.11062266E-1,-7.316277E-2,3.504176E-2,-9.974569E-2,-6.526534E-2,-1.5510057E-2,1.5543628E-1,-4.819886E-2,-1.5874743E-1,-2.083658E-2,-3.2778212E-1,2.5789365E-1,-5.2448526E-2,-9.678915E-2,-3.1934425E-1,-1.834045E-2,1.0554748E-2,4.5723457E-2,1.0389053E-1,-2.3286462E-1,-4.9413312E-2,1.3743436E-1,2.015111E-1,-1.4561084E-1,1.0585223E-1,1.3270783E-1,1.615363E-2,-8.458124E-2,-2.5090384E-1,-2.1277246E-1,-5.20729E-2,-2.173818E-1,4.575941E-2,2.4442855E-2,-1.3887373E-1,1.94777E-1,2.7094854E-2,4.0268496E-2,8.975871E-2,5.819388E-2,9.1638744E-2,4.909966E-2,-5.3485893E-2,1.636712E-1,9.872896E-2,1.5511512E-2,8.7173685E-2,2.0395193E-1,1.12289436E-1,1.0840159E-1,1.2551683E-1],"categories":[],"categories_nodes":[],"categories_segments":[],"categories_sizes":[],"default_left":[0,0,0,0,0,0,0,0,0,0,0,0,0,0,0,0,0,0,0,0,0,0,0,0,0,0,0,0,0,0,0,0,0,0,0,0,0,0,0,0,0,0,0,0,0,0,0,0,0,0,0,0,0,0,0,0,0,0,0,0,0,0,0,0,0,0,0,0,0,0,0,0,0,0,0,0,0,0,0,0,0,0,0,0,0,0,0,0,0,0,0,0,0,0,0,0,0,0,0,0,0,0,0,0,0,0,0,0,0,0,0,0,0,0,0,0,0],"id":4,"left_children":[1,3,5,7,9,11,13,15,17,19,21,23,25,27,29,31,33,35,37,39,41,43,45,47,49,51,53,55,57,59,61,-1,63,-1,65,67,69,71,73,75,77,79,81,83,85,87,89,-1,91,93,95,97,99,101,103,105,107,109,-1,111,113,115,-1,-1,-1,-1,-1,-1,-1,-1,-1,-1,-1,-1,-1,-1,-1,-1,-1,-1,-1,-1,-1,-1,-1,-1,-1,-1,-1,-1,-1,-1,-1,-1,-1,-1,-1,-1,-1,-1,-1,-1,-1,-1,-1,-1,-1,-1,-1,-1,-1,-1,-1,-1,-1,-1,-1],"loss_changes":[3.248376E2,1.17594215E2,2.0088089E1,1.8522354E1,2.0632223E1,1.4865511E1,4.5085907E0,3.665924E0,2.43898E0,3.6473858E0,4.018696E0,4.615361E0,2.646225E0,3.9570236E0,1.252945E0,1.4173813E0,2.5965805E0,1.5891991E0,2.4633904E0,8.060675E0,4.8135405E0,2.7763634E0,7.3270893E-1,3.0470862E0,1.999835E0,2.4975927E0,2.2900143E0,1.3178596E0,9.994278E-1,9.398804E-1,5.410309E-1,0E0,9.918442E-1,0E0,1.4326096E0,1.7152891E0,1.4288406E0,2.4135394E0,2.7466698E0,6.7250466E-1,1.2968245E0,1.1697941E0,3.0171595E0,2.4604797E0,6.505834E-1,7.6786995E-2,8.427303E-1,0E0,8.264829E-1,1.6047525E-1,2.904118E0,2.2344763E0,1.3592578E0,1.8956947E-1,1.8872232E0,1.0626888E0,3.3486962E-1,9.660034E-1,0E0,6.7456627E-1,3.7802505E-1,5.090103E-1,0E0,0E0,0E0,0E0,0E0,0E0,0E0,0E0,0E0,0E0,0E0,0E0,0E0,0E0,0E0,0E0,0E0,0E0,0E0,0E0,0E0,0E0,0E0,0E0,0E0,0E0,0E0,0E0,0E0,0E0,0E0,0E0,0E0,0E0,0E0,0E0,0E0,0E0,0E0,0E0,0E0,0E0,0E0,0E0,0E0,0E0,0E0,0E0,0E0,0E0,0E0,0E0,0E0,0E0,0E0],"parents":[2147483647,0,0,1,1,2,2,3,3,4,4,5,5,6,6,7,7,8,8,9,9,10,10,11,11,12,12,13,13,14,14,15,15,16,16,17,17,18,18,19,19,20,20,21,21,22,22,23,23,24,24,25,25,26,26,27,27,28,28,29,29,30,30,32,32,34,34,35,35,36,36,37,37,38,38,39,39,40,40,41,41,42,42,43,43,44,44,45,45,46,46,48,48,49,49,50,50,51,51,52,52,53,53,54,54,55,55,56,56,57,57,59,59,60,60,61,61],"right_children":[2,4,6,8,10,12,14,16,18,20,22,24,26,28,30,32,34,36,38,40,42,44,46,48,50,52,54,56,58,60,62,-1,64,-1,66,68,70,72,74,76,78,80,82,84,86,88,90,-1,92,94,96,98,100,102,104,106,108,110,-1,112,114,116,-1,-1,-1,-1,-1,-1,-1,-1,-1,-1,-1,-1,-1,-1,-1,-1,-1,-1,-1,-1,-1,-1,-1,-1,-1,-1,-1,-1,-1,-1,-1,-1,-1,-1,-1,-1,-1,-1,-1,-1,-1,-1,-1,-1,-1,-1,-1,-1,-1,-1,-1,-1,-1,-1,-1],"split_conditions":[1.657419E0,3.0611117E0,3.008287E0,2.7213902E0,3.4352539E0,1.773061E0,3.334054E0,2.5471408E0,2.8823643E0,1.1352248E0,3.9666448E0,1.6867625E0,1.959163E0,2.0463483E0,1.8730652E0,1.8843069E0,1.1102057E0,2.7317014E0,1.2224113E0,3.1065924E0,1.1514208E0,1.6459411E0,1.5495069E0,2.0936208E0,2.4281156E0,1.9414268E0,1.9834278E0,3.328934E0,2.787845E0,3.7304118E0,3.9385507E0,-1.803847E-1,1.3901219E0,1.3439135E-1,1.4149572E0,2.7266395E0,2.7586694E0,1.2207218E0,3.0577211E0,3.0849922E0,3.3559148E0,3.2606986E0,3.2661362E0,1.495637E0,3.5613627E0,1.4492681E0,1.5655551E0,-1.7631552E-1,2.8601E0,1.6969728E0,1.6969728E0,1.8843069E0,2.8500202E0,2.9435856E0,2.8184743E0,3.249776E0,1.8730652E0,2.0633116E0,2.113235E-1,1.6746335E0,3.7417972E0,2.1339135E0,1.4780183E-1,-1.1930035E-1,-9.5985055E-2,-7.759973E-2,-1.11062266E-1,-7.316277E-2,3.504176E-2,-9.974569E-2,-6.526534E-2,-1.5510057E-2,1.5543628E-1,-4.819886E-2,-1.5874743E-1,-2.083658E-2,-3.2778212E-1,2.5789365E-1,-5.2448526E-2,-9.678915E-2,-3.1934425E-1,-1.834045E-2,1.0554748E-2,4.5723457E-2,1.0389053E-1,-2.3286462E-1,-4.9413312E-2,1.3743436E-1,2.015111E-1,-1.4561084E-1,1.0585223E-1,1.3270783E-1,1.615363E-2,-8.458124E-2,-2.5090384E-1,-2.1277246E-1,-5.20729E-2,-2.173818E-1,4.575941E-2,2.4442855E-2,-1.3887373E-1,1.94777E-1,2.7094854E-2,4.0268496E-2,8.975871E-2,5.819388E-2,9.1638744E-2,4.909966E-2,-5.3485893E-2,1.636712E-1,9.872896E-2,1.5511512E-2,8.7173685E-2,2.0395193E-1,1.12289436E-1,1.0840159E-1,1.2551683E-1],"split_indices":[1,0,0,0,0,1,0,0,0,1,0,1,1,1,1,0,1,0,1,0,1,1,1,0,0,1,1,0,1,0,0,0,1,0,1,0,0,1,0,0,0,0,0,1,0,1,1,0,0,1,1,0,0,0,0,0,1,1,0,1,0,1,0,0,0,0,0,0,0,0,0,0,0,0,0,0,0,0,0,0,0,0,0,0,0,0,0,0,0,0,0,0,0,0,0,0,0,0,0,0,0,0,0,0,0,0,0,0,0,0,0,0,0,0,0,0,0],"split_type":[0,0,0,0,0,0,0,0,0,0,0,0,0,0,0,0,0,0,0,0,0,0,0,0,0,0,0,0,0,0,0,0,0,0,0,0,0,0,0,0,0,0,0,0,0,0,0,0,0,0,0,0,0,0,0,0,0,0,0,0,0,0,0,0,0,0,0,0,0,0,0,0,0,0,0,0,0,0,0,0,0,0,0,0,0,0,0,0,0,0,0,0,0,0,0,0,0,0,0,0,0,0,0,0,0,0,0,0,0,0,0,0,0,0,0,0,0],"sum_hessian":[8E3,5.372E3,2.628E3,3.274E3,2.098E3,5.39E2,2.089E3,1.541E3,1.733E3,1.411E3,6.87E2,9.9E1,4.4E2,8.22E2,1.267E3,8.79E2,6.62E2,8.34E2,8.99E2,1.6E1,1.395E3,6.5E2,3.7E1,2.6E1,7.3E1,1.39E2,3.01E2,4.76E2,3.46E2,3.48E2,9.19E2,3E1,8.49E2,4E0,6.58E2,5.1E1,7.83E2,1.11E2,7.88E2,3E0,1.3E1,1E1,1.385E3,6.42E2,8E0,3.4E1,3E0,4E0,2.2E1,1E1,6.3E1,1.21E2,1.8E1,1.5E1,2.86E2,4.63E2,1.3E1,3.38E2,8E0,2.33E2,1.15E2,8.58E2,6.1E1,5.72E2,2.77E2,4.98E2,1.6E2,2.4E1,2.7E1,1.35E2,6.48E2,1.04E2,7E0,7.68E2,2E1,1E0,2E0,1.2E1,1E0,6E0,4E0,8.65E2,5.2E2,5.68E2,7.4E1,2E0,6E0,2.3E1,1.1E1,1E0,2E0,1.2E1,1E1,2E0,8E0,1.2E1,5.1E1,2E0,1.19E2,7E0,1.1E1,1.4E1,1E0,1.28E2,1.58E2,3.43E2,1.2E2,3E0,1E1,2.4E1,3.14E2,1.3E1,2.2E2,5E0,1.1E2,5.37E2,3.21E2],"tree_param":{"num_deleted":"0","num_feature":"2","num_nodes":"117","size_leaf_vector":"1"}},{"base_weights":[4.5584998E-4,-9.837484E-2,2.024402E-1,-1.8327625E-1,2.977627E-2,7.066137E-2,2.3251927E-1,-2.658959E-1,-1.5088186E-1,-1.8030973E-2,1.3083696E-1,-1.7891042E-1,1.2957595E-1,1.9201149E-1,2.602249E-1,-1.2801495E-1,-2.599217E-1,-1.884661E-1,-1.2289738E-1,2.836464E-1,-2.222005E-2,1.4408089E-1,-1.2815133E-1,-1.3412485E-1,-2.440234E-1,-1.7390545E-1,1.346347E-1,1.10405676E-1,2.3158365E-1,2.2124094E-1,2.7353686E-1,-3.3740038E-1,-2.4954267E-1,-1.5339483E-1,-2.3213552E-1,5.0043963E-2,-1.2966555E-1,-3.0150458E-1,5.5596143E-1,-1.974991E-1,-1.0353326E-2,1.20707504E-1,3.8717872E-1,2.016557E-1,-2.373864E-1,-1.755529E-1,-7.6066844E-2,1.522561E-1,-8.483417E-2,1.3058977E-1,-2.1784705E-1,2.0390508E-1,3.0876404E-1,2.3494175E-1,6.605576E-2,2.550538E-1,2.967509E-1,-5.416266E-2,-1.2535419E-1,-5.7253253E-2,-8.147415E-2,-4.8824772E-2,1.5091443E-1,-1.0863194E-1,-4.5533754E-2,-1.0864372E-1,6.955478E-2,-5.936811E-2,-3.369984E-2,3.0703485E-2,-2.622257E-1,1.8647696E-1,-4.458125E-2,-3.458649E-2,-1.924271E-1,1.846552E-2,-1.2021079E-2,5.0617248E-2,2.9292793E-3,2.237869E-1,4.21045E-2,-2.662168E-1,1.34613E-1,-2.0396066E-1,-3.780958E-2,4.4574577E-2,-4.7563475E-2,3.0833853E-2,8.652144E-2,4.5915138E-2,-2.6649585E-1,2.378396E-2,6.1836366E-2,-2.1061479E-1,-4.4573913E-3,7.0232384E-2,2.9296601E-2,1.5492694E-1,7.617508E-2,1.0242904E-1,6.3399605E-2,-2.6622272E-1,5.20591E-2,7.4982576E-2,1.277924E-1,1.236768E-1,8.309642E-2],"categories":[],"categories_nodes":[],"categories_segments":[],"categories_sizes":[],"default_left":[0,0,0,0,0,0,0,0,0,0,0,0,0,0,0,0,0,0,0,0,0,0,0,0,0,0,0,0,0,0,0,0,0,0,0,0,0,0,0,0,0,0,0,0,0,0,0,0,0,0,0,0,0,0,0,0,0,0,0,0,0,0,0,0,0,0,0,0,0,0,0,0,0,0,0,0,0,0,0,0,0,0,0,0,0,0,0,0,0,0,0,0,0,0,0,0,0,0,0,0,0,0,0,0,0,0,0],"id":5,"left_children":[1,3,5,7,9,11,13,15,17,19,21,23,25,27,29,-1,31,33,35,37,39,41,43,45,-1,-1,47,49,51,53,55,57,59,61,63,65,67,69,71,73,75,77,79,81,83,-1,85,87,89,91,93,95,97,99,101,103,105,-1,-1,-1,-1,-1,-1,-1,-1,-1,-1,-1,-1,-1,-1,-1,-1,-1,-1,-1,-1,-1,-1,-1,-1,-1,-1,-1,-1,-1,-1,-1,-1,-1,-1,-1,-1,-1,-1,-1,-1,-1,-1,-1,-1,-1,-1,-1,-1,-1,-1],"loss_changes":[1.5973792E2,5.846482E1,1.0404358E1,8.610039E0,1.0351289E1,7.2278566E0,2.3517456E0,7.624359E-1,2.4211693E0,1.845059E0,2.3783188E0,2.5620508E0,1.5024705E0,2.7936249E0,5.975113E-1,0E0,6.2265396E-1,1.4806175E0,1.5691032E0,3.3545327E0,2.9848182E0,3.674986E0,1.2727711E0,2.2861438E0,0E0,0E0,1.5405192E0,1.9299629E0,1.191019E0,6.8185997E-1,3.2806396E-1,1.1990557E0,9.558754E-1,3.4714994E0,4.529951E0,3.9058154E0,1.4973888E0,1.7081141E0,7.3972416E-1,3.2471325E0,2.8785968E0,3.1893005E0,4.9430676E0,2.8196597E0,1.1953971E0,0E0,1.5058446E0,2.4357977E0,5.8700614E0,1.0339222E0,1.6604608E0,1.3730736E0,1.6114655E0,6.8460846E-1,3.0232422E0,3.5747528E-1,8.240051E-1,0E0,0E0,0E0,0E0,0E0,0E0,0E0,0E0,0E0,0E0,0E0,0E0,0E0,0E0,0E0,0E0,0E0,0E0,0E0,0E0,0E0,0E0,0E0,0E0,0E0,0E0,0E0,0E0,0E0,0E0,0E0,0E0,0E0,0E0,0E0,0E0,0E0,0E0,0E0,0E0,0E0,0E0,0E0,0E0,0E0,0E0,0E0,0E0,0E0,0E0],"parents":[2147483647,0,0,1,1,2,2,3,3,4,4,5,5,6,6,7,7,8,8,9,9,10,10,11,11,12,12,13,13,14,14,16,16,17,17,18,18,19,19,20,20,21,21,22,22,23,23,26,26,27,27,28,28,29,29,30,30,31,31,32,32,33,33,34,34,35,35,36,36,37,37,38,38,39,39,40,40,41,41,42,42,43,43,44,44,46,46,47,47,48,48,49,49,50,50,51,51,52,52,53,53,54,54,55,55,56,56],"right_children":[2,4,6,8,10,12,14,16,18,20,22,24,26,28,30,-1,32,34,36,38,40,42,44,46,-1,-1,48,50,52,54,56,58,60,62,64,66,68,70,72,74,76,78,80,82,84,-1,86,88,90,92,94,96,98,100,102,104,106,-1,-1,-1,-1,-1,-1,-1,-1,-1,-1,-1,-1,-1,-1,-1,-1,-1,-1,-1,-1,-1,-1,-1,-1,-1,-1,-1,-1,-1,-1,-1,-1,-1,-1,-1,-1,-1,-1,-1,-1,-1,-1,-1,-1,-1,-1,-1,-1,-1,-1],"split_conditions":[1.657419E0,3.0545764E0,2.970328E0,2.5543501E0,3.4352539E0,1.773061E0,3.334054E0,1.8843069E0,2.7936678E0,1.1352248E0,1.5914782E0,1.7637342E0,1.8843069E0,1.9248358E0,1.864084E0,-1.2801495E-1,1.1905526E0,1.3417097E0,1.1586654E0,3.1065924E0,1.2062458E0,1.495637E0,3.52612E0,2.3186862E0,-2.440234E-1,-1.7390545E-1,2.9606273E0,1.9109178E0,2.2378626E0,1.8496017E0,3.5959156E0,2.2626624E0,1.2777665E0,1.340271E0,1.4055228E0,1.1277101E0,1.2586961E0,3.0849922E0,3.3559148E0,1.1993058E0,1.3005826E0,1.3857869E0,1.5222278E0,1.601052E0,3.5796657E0,-1.755529E-1,1.6867625E0,2.8778744E0,2.1833036E0,1.8276017E0,3.1148736E0,2.1339135E0,3.0711458E0,3.4412506E0,3.3764224E0,2.5492105E0,3.6360617E0,-5.416266E-2,-1.2535419E-1,-5.7253253E-2,-8.147415E-2,-4.8824772E-2,1.5091443E-1,-1.0863194E-1,-4.5533754E-2,-1.0864372E-1,6.955478E-2,-5.936811E-2,-3.369984E-2,3.0703485E-2,-2.622257E-1,1.8647696E-1,-4.458125E-2,-3.458649E-2,-1.924271E-1,1.846552E-2,-1.2021079E-2,5.0617248E-2,2.9292793E-3,2.237869E-1,4.21045E-2,-2.662168E-1,1.34613E-1,-2.0396066E-1,-3.780958E-2,4.4574577E-2,-4.7563475E-2,3.0833853E-2,8.652144E-2,4.5915138E-2,-2.6649585E-1,2.378396E-2,6.1836366E-2,-2.1061479E-1,-4.4573913E-3,7.0232384E-2,2.9296601E-2,1.5492694E-1,7.617508E-2,1.0242904E-1,6.3399605E-2,-2.6622272E-1,5.20591E-2,7.4982576E-2,1.277924E-1,1.236768E-1,8.309642E-2],"split_indices":[1,0,0,0,0,1,0,0,0,1,1,1,0,1,1,0,1,1,1,0,1,1,0,0,0,0,0,1,1,1,0,0,1,1,1,1,1,0,0,1,1,1,1,1,0,0,1,0,1,1,0,1,0,0,0,1,0,0,0,0,0,0,0,0,0,0,0,0,0,0,0,0,0,0,0,0,0,0,0,0,0,0,0,0,0,0,0,0,0,0,0,0,0,0,0,0,0,0,0,0,0,0,0,0,0,0,0],"split_type":[0,0,0,0,0,0,0,0,0,0,0,0,0,0,0,0,0,0,0,0,0,0,0,0,0,0,0,0,0,0,0,0,0,0,0,0,0,0,0,0,0,0,0,0,0,0,0,0,0,0,0,0,0,0,0,0,0,0,0,0,0,0,0,0,0,0,0,0,0,0,0,0,0,0,0,0,0,0,0,0,0,0,0,0,0,0,0,0,0,0,0,0,0,0,0,0,0,0,0,0,0,0,0,0,0,0,0],"sum_hessian":[8E3,5.372E3,2.628E3,3.231E3,2.141E3,4.89E2,2.139E3,9.08E2,2.323E3,1.454E3,6.87E2,9.3E1,3.96E2,8.72E2,1.267E3,3E1,8.78E2,9.89E2,1.334E3,1.9E1,1.435E3,6.54E2,3.3E1,8.8E1,5E0,2E0,3.94E2,2.86E2,5.86E2,3.27E2,9.4E2,1E2,7.78E2,5.51E2,4.38E2,5E1,1.284E3,6E0,1.3E1,9E1,1.345E3,5.98E2,5.6E1,8E0,2.5E1,9E0,7.9E1,3.65E2,2.9E1,2.7E2,1.6E1,4.34E2,1.52E2,3E2,2.7E1,5.3E2,4.1E2,3.5E1,6.5E1,2.15E2,5.63E2,5.44E2,7E0,1.66E2,2.72E2,1.5E1,3.5E1,2.58E2,1.026E3,4E0,2E0,1.2E1,1E0,7.7E1,1.3E1,3.93E2,9.52E2,4.17E2,1.81E2,2.2E1,3.4E1,1E0,7E0,4E0,2.1E1,2.1E1,5.8E1,2.69E2,9.6E1,2.3E1,6E0,1.62E2,1.08E2,4E0,1.2E1,3.37E2,9.7E1,3E1,1.22E2,5.2E1,2.48E2,2E0,2.5E1,5.17E2,1.3E1,5.7E1,3.53E2],"tree_param":{"num_deleted":"0","num_feature":"2","num_nodes":"107","size_leaf_vector":"1"}},{"base_weights":[1.77598E-4,-6.904752E-2,1.4165588E-1,-1.3809857E-1,9.710818E-3,4.803496E-2,1.6302624E-1,-1.8798608E-1,-1.1590143E-1,-1.776215E-2,1.1267714E-1,-7.941083E-2,1.1064342E-1,1.3738789E-1,1.8741411E-1,-2.3641515E-1,-1.7264432E-1,-1.1936784E-1,2.6933923E-1,-4.6050973E-2,1.7101767E-2,2.541755E-1,8.031715E-2,-1.319396E-1,-4.764781E-2,4.2876372E-1,9.829094E-2,1.2948668E-1,3.556832E-1,2.5249818E-1,1.7775501E-1,-2.8970668E-1,-1.6273291E-1,-2.5481188E-1,-1.574936E-1,-8.345492E-2,-1.4650877E-1,1.449026E-1,3.577143E-1,-2.713957E-2,-2.824587E-1,-2.789263E-1,2.4585081E-2,1.3305327E-1,5.522292E-1,-1.1081988E-1,1.4125943E-1,-9.073187E-3,-2.3127013E-1,1.6696084E-1,3.4084976E-2,-7.829333E-2,1.2544613E-1,1.3409264E-1,-2.3477818E-1,2.9540148E-1,4.2038423E-1,4.192956E-1,2.2893965E-1,5.606772E-2,1.8805067E-1,-4.436254E-2,-1.3015193E-1,1.276352E-1,-6.0701177E-2,1.3011428E-2,-9.066133E-2,-1.9002248E-2,-5.5467382E-2,-3.270381E-2,4.8064943E-2,-3.8051438E-2,-6.830668E-2,7.387642E-2,-1.2304764E-1,-5.640456E-3,-4.5223206E-2,-2.0888338E-2,-1.7697631E-1,1.5372549E-1,-1.4497451E-1,9.121942E-2,3.848052E-3,6.7493364E-2,-3.3781E-2,-1.4147873E-1,1.94737E-1,-1.06894355E-2,-1.5804857E-1,8.5871115E-2,2.320008E-2,-1.6589254E-2,1.5841089E-1,-3.9886743E-2,-2.8220844E-1,-1.454115E-4,1.3730931E-2,-6.2451903E-2,8.237308E-2,4.3416727E-2,-5.302402E-2,1.6790278E-2,4.556267E-2,-1.3891235E-1,1.1837211E-1,1.0868109E-1,-7.465734E-2,1.4561507E-1,7.2596386E-2,-1.3041723E-1,1.5156357E-1,-4.3315344E-2,7.27761E-2,-8.129636E-2,3.8357034E-2,1.2746565E-1,5.5120885E-2],"categories":[],"categories_nodes":[],"categories_segments":[],"categories_sizes":[],"default_left":[0,0,0,0,0,0,0,0,0,0,0,0,0,0,0,0,0,0,0,0,0,0,0,0,0,0,0,0,0,0,0,0,0,0,0,0,0,0,0,0,0,0,0,0,0,0,0,0,0,0,0,0,0,0,0,0,0,0,0,0,0,0,0,0,0,0,0,0,0,0,0,0,0,0,0,0,0,0,0,0,0,0,0,0,0,0,0,0,0,0,0,0,0,0,0,0,0,0,0,0,0,0,0,0,0,0,0,0,0,0,0,0,0,0,0,0,0],"id":6,"left_children":[1,3,5,7,9,11,13,15,17,19,21,23,25,27,29,31,33,35,37,39,41,43,45,-1,47,49,51,53,55,57,59,61,63,65,67,69,71,73,-1,75,77,79,81,83,85,87,89,91,93,-1,95,97,99,101,103,105,107,109,111,113,115,-1,-1,-1,-1,-1,-1,-1,-1,-1,-1,-1,-1,-1,-1,-1,-1,-1,-1,-1,-1,-1,-1,-1,-1,-1,-1,-1,-1,-1,-1,-1,-1,-1,-1,-1,-1,-1,-1,-1,-1,-1,-1,-1,-1,-1,-1,-1,-1,-1,-1,-1,-1,-1,-1,-1,-1],"loss_changes":[7.837038E1,2.9221571E1,5.2520447E0,3.1485825E0,7.105095E0,3.918587E0,1.3123169E0,6.130104E-1,2.6815872E0,1.9565396E0,2.401816E0,1.8334593E0,1.2506857E0,1.7598038E0,6.428642E-1,7.7352333E-1,7.964382E-1,1.9050255E0,1.8947045E0,4.887862E0,1.9762332E0,3.464416E0,5.0477324E0,0E0,1.060376E0,5.86179E-1,1.5346885E0,1.7294064E0,1.6228199E-2,4.5020676E-1,1.1871834E0,2.38896E0,2.1826E0,1.4686694E0,1.458642E0,5.304782E0,1.7580166E0,1.0573664E0,0E0,1.0432453E0,5.2593603E0,3.8047862E0,2.8485117E0,1.6286469E0,3.0837955E0,3.2655277E0,3.0177073E0,3.1326394E0,1.6883413E0,0E0,1.6379431E-3,2.0278788E0,1.6333218E0,1.3807888E0,2.050254E0,8.908212E-1,5.647731E-2,1.3936145E0,6.6679144E-1,1.8190525E0,8.221359E-1,0E0,0E0,0E0,0E0,0E0,0E0,0E0,0E0,0E0,0E0,0E0,0E0,0E0,0E0,0E0,0E0,0E0,0E0,0E0,0E0,0E0,0E0,0E0,0E0,0E0,0E0,0E0,0E0,0E0,0E0,0E0,0E0,0E0,0E0,0E0,0E0,0E0,0E0,0E0,0E0,0E0,0E0,0E0,0E0,0E0,0E0,0E0,0E0,0E0,0E0,0E0,0E0,0E0,0E0,0E0,0E0],"parents":[2147483647,0,0,1,1,2,2,3,3,4,4,5,5,6,6,7,7,8,8,9,9,10,10,11,11,12,12,13,13,14,14,15,15,16,16,17,17,18,18,19,19,20,20,21,21,22,22,24,24,25,25,26,26,27,27,28,28,29,29,30,30,31,31,32,32,33,33,34,34,35,35,36,36,37,37,39,39,40,40,41,41,42,42,43,43,44,44,45,45,46,46,47,47,48,48,50,50,51,51,52,52,53,53,54,54,55,55,56,56,57,57,58,58,59,59,60,60],"right_children":[2,4,6,8,10,12,14,16,18,20,22,24,26,28,30,32,34,36,38,40,42,44,46,-1,48,50,52,54,56,58,60,62,64,66,68,70,72,74,-1,76,78,80,82,84,86,88,90,92,94,-1,96,98,100,102,104,106,108,110,112,114,116,-1,-1,-1,-1,-1,-1,-1,-1,-1,-1,-1,-1,-1,-1,-1,-1,-1,-1,-1,-1,-1,-1,-1,-1,-1,-1,-1,-1,-1,-1,-1,-1,-1,-1,-1,-1,-1,-1,-1,-1,-1,-1,-1,-1,-1,-1,-1,-1,-1,-1,-1,-1,-1,-1,-1,-1],"split_conditions":[1.657419E0,2.98656E0,2.970328E0,2.5471408E0,3.4997878E0,1.8892455E0,3.402362E0,2.2046297E0,1.6363168E0,3.2148237E0,1.2561569E0,2.3186862E0,1.9036222E0,2.5492105E0,3.4517186E0,1.3332403E0,1.2094507E0,1.306195E0,2.9640105E0,3.1966054E0,1.1634291E0,1.2383332E0,1.3252003E0,-1.319396E-1,2.9289505E0,2.8469212E0,1.959163E0,2.4901338E0,3.2958307E0,1.773061E0,3.475824E0,1.2320113E0,1.3417097E0,2.2626624E0,1.2777665E0,1.2938683E0,2.9083955E0,2.932542E0,3.577143E-1,1.540784E0,1.3583142E0,1.1277101E0,1.1933988E0,1.2207218E0,3.5204766E0,1.3202956E0,1.3791701E0,2.9134505E0,1.8730652E0,1.6696084E-1,2.8932421E0,2.8729835E0,2.9606273E0,1.8276017E0,3.2212238E0,3.249776E0,2.787845E0,3.4091008E0,1.8192292E0,1.8001622E0,3.482065E0,-4.436254E-2,-1.3015193E-1,1.276352E-1,-6.0701177E-2,1.3011428E-2,-9.066133E-2,-1.9002248E-2,-5.5467382E-2,-3.270381E-2,4.8064943E-2,-3.8051438E-2,-6.830668E-2,7.387642E-2,-1.2304764E-1,-5.640456E-3,-4.5223206E-2,-2.0888338E-2,-1.7697631E-1,1.5372549E-1,-1.4497451E-1,9.121942E-2,3.848052E-3,6.7493364E-2,-3.3781E-2,-1.4147873E-1,1.94737E-1,-1.06894355E-2,-1.5804857E-1,8.5871115E-2,2.320008E-2,-1.6589254E-2,1.5841089E-1,-3.9886743E-2,-2.8220844E-1,-1.454115E-4,1.3730931E-2,-6.2451903E-2,8.237308E-2,4.3416727E-2,-5.302402E-2,1.6790278E-2,4.556267E-2,-1.3891235E-1,1.1837211E-1,1.0868109E-1,-7.465734E-2,1.4561507E-1,7.2596386E-2,-1.3041723E-1,1.5156357E-1,-4.3315344E-2,7.27761E-2,-8.129636E-2,3.8357034E-2,1.2746565E-1,5.5120885E-2],"split_indices":[1,0,0,0,0,1,0,0,1,0,1,0,1,1,0,1,1,1,0,0,1,1,1,0,0,0,1,1,0,1,0,1,1,0,1,1,0,0,0,1,1,1,1,1,0,1,1,0,1,0,0,0,0,1,0,0,1,0,1,1,0,0,0,0,0,0,0,0,0,0,0,0,0,0,0,0,0,0,0,0,0,0,0,0,0,0,0,0,0,0,0,0,0,0,0,0,0,0,0,0,0,0,0,0,0,0,0,0,0,0,0,0,0,0,0,0,0],"split_type":[0,0,0,0,0,0,0,0,0,0,0,0,0,0,0,0,0,0,0,0,0,0,0,0,0,0,0,0,0,0,0,0,0,0,0,0,0,0,0,0,0,0,0,0,0,0,0,0,0,0,0,0,0,0,0,0,0,0,0,0,0,0,0,0,0,0,0,0,0,0,0,0,0,0,0,0,0,0,0,0,0,0,0,0,0,0,0,0,0,0,0,0,0,0,0,0,0,0,0,0,0,0,0,0,0,0,0,0,0,0,0,0,0,0,0,0,0],"sum_hessian":[8E3,5.372E3,2.628E3,2.862E3,2.51E3,4.89E2,2.139E3,8.79E2,1.983E3,1.982E3,5.28E2,1.61E2,3.28E2,1.046E3,1.093E3,2.08E2,6.71E2,1.966E3,1.7E1,1.094E3,8.88E2,9.7E1,4.31E2,1.2E1,1.49E2,1.1E1,3.17E2,1.011E3,3.5E1,1.38E2,9.55E2,1.19E2,8.9E1,1.02E2,5.69E2,8.48E2,1.118E3,1.6E1,1E0,1.014E3,8E1,2.1E1,8.67E2,7E1,2.7E1,1.04E2,3.27E2,1.24E2,2.5E1,8E0,3E0,4.2E1,2.75E2,9.99E2,1.2E1,2.1E1,1.4E1,1.5E1,1.23E2,7.5E1,8.8E2,6.1E1,5.8E1,5E0,8.4E1,1.4E1,8.8E1,1.29E2,4.4E2,7.68E2,8E1,9.02E2,2.16E2,1.4E1,2E0,9.51E2,6.3E1,4.8E1,3.2E1,4E0,1.7E1,3.4E1,8.33E2,5.1E1,1.9E1,2E0,2.5E1,8.9E1,1.5E1,9.9E1,2.28E2,1.15E2,9E0,2.3E1,2E0,1E0,2E0,3.1E1,1.1E1,2.59E2,1.6E1,1.86E2,8.13E2,9E0,3E0,1.9E1,2E0,9E0,5E0,1E0,1.4E1,4E0,1.19E2,1.3E1,6.2E1,1.4E1,8.66E2],"tree_param":{"num_deleted":"0","num_feature":"2","num_nodes":"117","size_leaf_vector":"1"}},{"base_weights":[1.4969747E-4,-4.8362993E-2,9.9297106E-2,-1.0687416E-1,-3.0439734E-4,-5.3149056E-2,1.06609456E-1,-1.5287283E-1,-9.644833E-2,-3.2394197E-2,4.6546962E-2,-1.5449339E-1,8.4298104E-2,8.6377144E-2,1.3596275E-1,-1.940849E-1,-9.683534E-2,-9.097337E-2,-1.6713294E-1,6.20297E-3,-5.4504786E-2,3.8328733E-2,2.968431E-1,-9.475103E-2,-4.3714672E-1,5.523414E-1,-1.335389E-2,7.047136E-2,1.7822172E-1,2.7478194E-1,1.31343E-1,-1.8039566E-1,-4.3609193E-1,2.2946098E-1,-1.1000085E-1,-9.709519E-2,1.9390482E-1,-1.8557768E-1,5.109939E-1,4.4512972E-2,-1.3066277E-1,-2.3893219E-1,-3.303523E-2,-1.7238441E-1,4.735732E-2,3.249814E-1,-2.3577511E-2,-2.6096022E-1,-1.4934999E-2,1.9175497E-1,2.4073787E-1,9.811628E-2,-4.0216407E-1,5.662547E-1,6.8850525E-2,3.0261034E-1,1.561012E-1,2.2228051E-2,3.100672E-1,3.180963E-1,1.2756124E-1,-4.966225E-2,-1.1451919E-1,-1.5901E-1,-8.395551E-2,-5.248442E-2,-2.0286217E-2,-2.790764E-2,-5.2286822E-2,-4.9509676E-3,1.8479712E-1,-2.8876392E-2,-1.104119E-1,2.3626505E-1,-4.7801223E-2,6.6582733E-3,1.304046E-1,3.9818104E-2,-6.1110888E-2,-1.0436666E-1,9.322141E-4,8.441074E-2,-1.1825382E-2,1.1683136E-1,-6.969301E-2,2.512729E-1,1.2914126E-2,1.3632335E-1,7.6509915E-2,-1.0323284E-1,1.4070275E-1,9.83285E-3,-9.841677E-2,8.005658E-2,-2.6609192E-2,1.2927955E-1,-3.3402063E-2,-6.410244E-2,8.762069E-2,-2.0587711E-1,-5.471198E-2,3.2805014E-1,-1.5232237E-1,-3.550114E-2,2.2562098E-2,1.7375384E-1,7.9459935E-2,1.8555745E-2,5.838335E-2,1.5352142E-2,6.594479E-4,1.8799078E-1,7.410406E-2,4.081561E-2,1.8322088E-1,-1.0309836E-1,3.8811877E-2],"categories":[],"categories_nodes":[],"categories_segments":[],"categories_sizes":[],"default_left":[0,0,0,0,0,0,0,0,0,0,0,0,0,0,0,0,0,0,0,0,0,0,0,0,0,0,0,0,0,0,0,0,0,0,0,0,0,0,0,0,0,0,0,0,0,0,0,0,0,0,0,0,0,0,0,0,0,0,0,0,0,0,0,0,0,0,0,0,0,0,0,0,0,0,0,0,0,0,0,0,0,0,0,0,0,0,0,0,0,0,0,0,0,0,0,0,0,0,0,0,0,0,0,0,0,0,0,0,0,0,0,0,0,0,0,0,0],"id":7,"left_children":[1,3,5,7,9,11,13,15,17,19,21,23,25,27,29,31,33,35,37,39,41,43,45,47,-1,49,51,53,55,57,59,61,63,-1,65,67,69,71,73,75,77,79,81,83,85,87,89,91,93,95,-1,97,99,101,103,105,107,109,111,113,115,-1,-1,-1,-1,-1,-1,-1,-1,-1,-1,-1,-1,-1,-1,-1,-1,-1,-1,-1,-1,-1,-1,-1,-1,-1,-1,-1,-1,-1,-1,-1,-1,-1,-1,-1,-1,-1,-1,-1,-1,-1,-1,-1,-1,-1,-1,-1,-1,-1,-1,-1,-1,-1,-1,-1,-1],"loss_changes":[3.8488873E1,1.5108653E1,2.9363174E0,1.1472607E0,4.438191E0,1.6984918E0,1.4783134E0,1.0112085E0,7.5027275E-1,1.4955053E0,2.4570122E0,5.309621E0,2.3840544E0,2.1611986E0,6.1932945E-1,7.694311E-1,2.2509902E0,3.224249E0,1.8584394E0,3.356302E0,4.4030733E0,2.2207034E0,3.5027313E-1,8.982013E-1,0E0,6.5782714E-1,1.9464513E0,9.815664E-1,5.553498E-1,2.7827382E-1,6.5932465E-1,6.665621E-1,4.24757E-2,0E0,5.0838685E-1,5.4927444E-1,3.473764E0,2.2137065E0,8.6702347E-1,4.344391E0,2.7203622E0,3.0602121E0,2.0158348E0,1.7065125E0,3.7650726E0,2.00979E-1,7.9294956E-1,4.4433796E-1,1.0005877E0,4.1044676E-1,0E0,2.1789525E0,4.9925506E-1,2.8202538E0,1.5164433E0,1.8063664E-1,6.703119E-1,2.7864135E-3,4.0411544E-1,9.2910326E-1,8.751154E-1,0E0,0E0,0E0,0E0,0E0,0E0,0E0,0E0,0E0,0E0,0E0,0E0,0E0,0E0,0E0,0E0,0E0,0E0,0E0,0E0,0E0,0E0,0E0,0E0,0E0,0E0,0E0,0E0,0E0,0E0,0E0,0E0,0E0,0E0,0E0,0E0,0E0,0E0,0E0,0E0,0E0,0E0,0E0,0E0,0E0,0E0,0E0,0E0,0E0,0E0,0E0,0E0,0E0,0E0,0E0,0E0],"parents":[2147483647,0,0,1,1,2,2,3,3,4,4,5,5,6,6,7,7,8,8,9,9,10,10,11,11,12,12,13,13,14,14,15,15,16,16,17,17,18,18,19,19,20,20,21,21,22,22,23,23,25,25,26,26,27,27,28,28,29,29,30,30,31,31,32,32,34,34,35,35,36,36,37,37,38,38,39,39,40,40,41,41,42,42,43,43,44,44,45,45,46,46,47,47,48,48,49,49,51,51,52,52,53,53,54,54,55,55,56,56,57,57,58,58,59,59,60,60],"right_children":[2,4,6,8,10,12,14,16,18,20,22,24,26,28,30,32,34,36,38,40,42,44,46,48,-1,50,52,54,56,58,60,62,64,-1,66,68,70,72,74,76,78,80,82,84,86,88,90,92,94,96,-1,98,100,102,104,106,108,110,112,114,116,-1,-1,-1,-1,-1,-1,-1,-1,-1,-1,-1,-1,-1,-1,-1,-1,-1,-1,-1,-1,-1,-1,-1,-1,-1,-1,-1,-1,-1,-1,-1,-1,-1,-1,-1,-1,-1,-1,-1,-1,-1,-1,-1,-1,-1,-1,-1,-1,-1,-1,-1,-1,-1,-1,-1,-1],"split_conditions":[1.657419E0,2.8932421E0,2.6885695E0,2.369014E0,3.2703807E0,2.004211E0,2.0558748E0,1.3392572E0,1.5320835E0,1.3005826E0,3.9666448E0,1.9979262E0,2.070337E0,3.7304118E0,2.0633116E0,2.3513937E0,1.3417097E0,1.5141933E0,2.8875241E0,3.1712782E0,1.3171821E0,1.187197E0,1.5495069E0,2.4281156E0,-4.3714672E-1,2.5405612E0,2.656505E0,2.6953082E0,3.7541752E0,3.008287E0,2.7317014E0,1.3270402E0,1.2189329E0,2.2946098E-1,2.1753657E0,2.8729835E0,2.769909E0,2.769909E0,1.5655551E0,3.1572149E0,1.1993058E0,3.1290522E0,1.3202956E0,1.1277101E0,1.1905526E0,1.2668781E0,1.581779E0,1.6746335E0,2.5291657E0,2.03234E0,2.4073787E-1,2.2825203E0,2.6639688E0,1.7637342E0,2.780999E0,1.6867625E0,3.8428802E0,2.7018635E0,3.0611117E0,2.433668E0,2.7372005E0,-4.966225E-2,-1.1451919E-1,-1.5901E-1,-8.395551E-2,-5.248442E-2,-2.0286217E-2,-2.790764E-2,-5.2286822E-2,-4.9509676E-3,1.8479712E-1,-2.8876392E-2,-1.104119E-1,2.3626505E-1,-4.7801223E-2,6.6582733E-3,1.304046E-1,3.9818104E-2,-6.1110888E-2,-1.0436666E-1,9.322141E-4,8.441074E-2,-1.1825382E-2,1.1683136E-1,-6.969301E-2,2.512729E-1,1.2914126E-2,1.3632335E-1,7.6509915E-2,-1.0323284E-1,1.4070275E-1,9.83285E-3,-9.841677E-2,8.005658E-2,-2.6609192E-2,1.2927955E-1,-3.3402063E-2,-6.410244E-2,8.762069E-2,-2.0587711E-1,-5.471198E-2,3.2805014E-1,-1.5232237E-1,-3.550114E-2,2.2562098E-2,1.7375384E-1,7.9459935E-2,1.8555745E-2,5.838335E-2,1.5352142E-2,6.594479E-4,1.8799078E-1,7.410406E-2,4.081561E-2,1.8322088E-1,-1.0309836E-1,3.8811877E-2],"split_indices":[1,0,0,0,0,1,1,1,1,1,0,1,1,0,1,0,1,1,0,0,1,1,1,0,0,0,0,0,0,0,0,1,1,0,0,0,0,0,1,0,1,0,1,1,1,1,1,1,0,1,0,1,0,1,0,1,0,0,0,1,0,0,0,0,0,0,0,0,0,0,0,0,0,0,0,0,0,0,0,0,0,0,0,0,0,0,0,0,0,0,0,0,0,0,0,0,0,0,0,0,0,0,0,0,0,0,0,0,0,0,0,0,0,0,0,0,0],"split_type":[0,0,0,0,0,0,0,0,0,0,0,0,0,0,0,0,0,0,0,0,0,0,0,0,0,0,0,0,0,0,0,0,0,0,0,0,0,0,0,0,0,0,0,0,0,0,0,0,0,0,0,0,0,0,0,0,0,0,0,0,0,0,0,0,0,0,0,0,0,0,0,0,0,0,0,0,0,0,0,0,0,0,0,0,0,0,0,0,0,0,0,0,0,0,0,0,0,0,0,0,0,0,0,0,0,0,0,0,0,0,0,0,0,0,0,0,0],"sum_hessian":[8E3,5.372E3,2.628E3,2.422E3,2.95E3,1.2E2,2.508E3,4.45E2,1.977E3,1.751E3,1.199E3,6.9E1,5.1E1,1.487E3,1.021E3,2.55E2,1.9E2,1.837E3,1.4E2,6.38E2,1.113E3,1.162E3,3.7E1,6.7E1,2E0,8E0,4.3E1,1.269E3,2.18E2,3.1E1,9.9E2,2.43E2,1.2E1,2E0,1.88E2,1.799E3,3.8E1,1.37E2,3E0,4.99E2,1.39E2,1.15E2,9.98E2,4.7E1,1.115E3,3.4E1,3E0,2.1E1,4.6E1,4E0,4E0,3.4E1,9E0,3E0,1.266E3,3.1E1,1.87E2,4E0,2.7E1,1.8E1,9.72E2,2.28E2,1.5E1,6E0,6E0,7.3E1,1.15E2,1.711E3,8.8E1,2.6E1,1.2E1,9.3E1,4.4E1,2E0,1E0,4.73E2,2.6E1,3E1,1.09E2,7.9E1,3.6E1,1.9E1,9.79E2,4E0,4.3E1,5E0,1.11E3,1E1,2.4E1,2E0,1E0,4E0,1.7E1,9E0,3.7E1,2E0,2E0,1.3E1,2.1E1,3E0,6E0,2E0,1E0,4.1E1,1.225E3,2E0,2.9E1,5.5E1,1.32E2,1E0,3E0,3E0,2.4E1,1.2E1,6E0,3E0,9.69E2],"tree_param":{"num_deleted":"0","num_feature":"2","num_nodes":"117","size_leaf_vector":"1"}},{"base_weights":[2.4265352E-4,-3.0168466E-2,7.930051E-2,-5.5975165E-2,3.4390006E-2,4.5342363E-2,9.5305026E-2,-8.306587E-2,-3.1598937E-2,2.557319E-2,1.3401341E-1,4.2102882E-1,4.102718E-2,1.7185491E-1,8.735696E-2,-8.398767E-2,1.1626128E-1,-2.3018232E-2,-1.8510531E-1,2.4632853E-1,2.1711696E-2,3.6135536E-1,1.08689986E-1,1.7958511E-1,-7.449055E-2,-4.200545E-1,4.95927E-2,-1.132365E-1,1.9925284E-1,-4.7298174E-2,9.356048E-2,-1.1427948E-1,-7.615599E-2,-9.8750584E-2,-1.4098482E-2,-1.1113084E-2,-4.366023E-1,-1.1943613E-1,6.212806E-1,-1.3806671E-1,2.7918844E-2,6.3653E-1,3.455857E-2,3.1281654E-2,1.783525E-1,-9.1760375E-2,5.8239628E-2,-7.7930725E-1,9.3183406E-2,-9.546551E-2,5.8832534E-2,-2.6397672E-1,5.4222967E-2,4.2409977E-1,1.6133769E-1,-1.8584208E-1,1.7403378E-1,1.6084275E-1,8.8346355E-2,-4.404728E-2,-2.5375916E-2,-2.3439569E-4,-2.4401825E-2,2.4434987E-3,-7.322331E-2,1.7097396E-1,-6.0492693E-3,-1.687463E-1,2.7562175E-2,-3.3854446E-1,-1.1423243E-1,7.215727E-2,-3.238404E-1,1.2042668E-1,2.4326351E-1,-1.719799E-1,-2.8069638E-2,1.557996E-1,6.7121545E-3,3.1908706E-2,2.1214928E-1,-5.8758777E-2,1.22122295E-1,7.450504E-2,-4.068958E-2,1.2365086E-1,2.336961E-2,6.7545965E-2,-2.799027E-1,-8.085273E-2,3.882106E-2,1.1409039E-1,1.5515879E-2,2.7135373E-3,-1.8225461E-1,4.8994063E-3,1.4221504E-1,-2.7446067E-2,5.5295218E-2,4.1660205E-3,-1.8592353E-1,1.1590093E-1,6.2689306E-3,2.1366449E-1,3.2304615E-2,-6.1241197E-3,2.8111074E-2],"categories":[],"categories_nodes":[],"categories_segments":[],"categories_sizes":[],"default_left":[0,0,0,0,0,0,0,0,0,0,0,0,0,0,0,0,0,0,0,0,0,0,0,0,0,0,0,0,0,0,0,0,0,0,0,0,0,0,0,0,0,0,0,0,0,0,0,0,0,0,0,0,0,0,0,0,0,0,0,0,0,0,0,0,0,0,0,0,0,0,0,0,0,0,0,0,0,0,0,0,0,0,0,0,0,0,0,0,0,0,0,0,0,0,0,0,0,0,0,0,0,0,0,0,0,0,0],"id":8,"left_children":[1,3,5,7,9,11,13,15,17,19,21,23,25,27,29,31,-1,33,35,37,39,41,43,-1,45,47,49,51,53,55,57,59,61,63,65,67,69,71,73,75,77,79,81,83,85,-1,-1,87,-1,89,91,93,-1,95,97,99,101,103,105,-1,-1,-1,-1,-1,-1,-1,-1,-1,-1,-1,-1,-1,-1,-1,-1,-1,-1,-1,-1,-1,-1,-1,-1,-1,-1,-1,-1,-1,-1,-1,-1,-1,-1,-1,-1,-1,-1,-1,-1,-1,-1,-1,-1,-1,-1,-1,-1],"loss_changes":[1.9238699E1,9.629976E0,1.2038431E0,2.72404E0,1.4467473E0,1.1402315E0,9.0370464E-1,8.8062954E-1,2.8606334E0,1.2886645E0,7.321727E-1,7.4857867E-1,2.8130598E0,1.1239023E0,1.1488342E0,4.54381E-1,0E0,1.3908414E0,5.027377E0,3.6399531E0,1.4845644E0,1.147043E0,6.5230095E-1,0E0,2.4583839E-1,3.65448E0,9.3713474E-1,6.2380147E-1,1.0313153E0,1.9028587E0,4.4536304E-1,3.7315655E-1,6.070814E-1,3.373045E0,6.5473447E0,3.9698021E0,1.3857212E0,5.0976667E0,2.1639585E-1,1.0309099E0,3.9067638E0,1.8692017E-1,6.805791E-1,2.171353E0,1.4711125E0,0E0,0E0,1.5995555E0,0E0,1.6786299E0,1.4757597E0,8.49637E-1,0E0,3.588853E-1,6.675637E-1,3.3017979E0,7.722021E-1,2.6492612E0,7.1158314E-1,0E0,0E0,0E0,0E0,0E0,0E0,0E0,0E0,0E0,0E0,0E0,0E0,0E0,0E0,0E0,0E0,0E0,0E0,0E0,0E0,0E0,0E0,0E0,0E0,0E0,0E0,0E0,0E0,0E0,0E0,0E0,0E0,0E0,0E0,0E0,0E0,0E0,0E0,0E0,0E0,0E0,0E0,0E0,0E0,0E0,0E0,0E0,0E0],"parents":[2147483647,0,0,1,1,2,2,3,3,4,4,5,5,6,6,7,7,8,8,9,9,10,10,11,11,12,12,13,13,14,14,15,15,17,17,18,18,19,19,20,20,21,21,22,22,24,24,25,25,26,26,27,27,28,28,29,29,30,30,31,31,32,32,33,33,34,34,35,35,36,36,37,37,38,38,39,39,40,40,41,41,42,42,43,43,44,44,47,47,49,49,50,50,51,51,53,53,54,54,55,55,56,56,57,57,58,58],"right_children":[2,4,6,8,10,12,14,16,18,20,22,24,26,28,30,32,-1,34,36,38,40,42,44,-1,46,48,50,52,54,56,58,60,62,64,66,68,70,72,74,76,78,80,82,84,86,-1,-1,88,-1,90,92,94,-1,96,98,100,102,104,106,-1,-1,-1,-1,-1,-1,-1,-1,-1,-1,-1,-1,-1,-1,-1,-1,-1,-1,-1,-1,-1,-1,-1,-1,-1,-1,-1,-1,-1,-1,-1,-1,-1,-1,-1,-1,-1,-1,-1,-1,-1,-1,-1,-1,-1,-1,-1,-1],"split_conditions":[1.8001622E0,3.2148237E0,3.1528323E0,2.7936678E0,3.8428802E0,1.8085084E0,3.225968E0,1.7926782E0,3.191371E0,3.2212238E0,3.8627446E0,3.0611117E0,1.8146873E0,1.8192292E0,3.2449088E0,2.3381314E0,1.1626128E-1,1.2156948E0,1.3691128E0,1.3857869E0,1.187197E0,1.377718E0,1.4492681E0,1.7958511E-1,3.0711458E0,3.0333982E0,2.5699217E0,3.1816158E0,1.8892455E0,2.0182185E0,1.8354897E0,1.306195E0,1.1733699E0,1.187197E0,1.2207218E0,1.2301462E0,1.3812743E0,1.2736092E0,1.4321074E0,3.2381215E0,1.1933988E0,1.2938683E0,1.7532294E0,1.3202956E0,1.5495069E0,-9.1760375E-2,5.8239628E-2,2.5543501E0,9.3183406E-2,2.1938505E0,2.642249E0,3.1779282E0,5.4222967E-2,3.1572149E0,1.9372424E0,1.959163E0,2.1532068E0,3.289171E0,3.2703807E0,-4.404728E-2,-2.5375916E-2,-2.3439569E-4,-2.4401825E-2,2.4434987E-3,-7.322331E-2,1.7097396E-1,-6.0492693E-3,-1.687463E-1,2.7562175E-2,-3.3854446E-1,-1.1423243E-1,7.215727E-2,-3.238404E-1,1.2042668E-1,2.4326351E-1,-1.719799E-1,-2.8069638E-2,1.557996E-1,6.7121545E-3,3.1908706E-2,2.1214928E-1,-5.8758777E-2,1.22122295E-1,7.450504E-2,-4.068958E-2,1.2365086E-1,2.336961E-2,6.7545965E-2,-2.799027E-1,-8.085273E-2,3.882106E-2,1.1409039E-1,1.5515879E-2,2.7135373E-3,-1.8225461E-1,4.8994063E-3,1.4221504E-1,-2.7446067E-2,5.5295218E-2,4.1660205E-3,-1.8592353E-1,1.1590093E-1,6.2689306E-3,2.1366449E-1,3.2304615E-2,-6.1241197E-3,2.8111074E-2],"split_indices":[1,0,0,0,0,1,0,1,0,0,0,0,1,1,0,0,0,1,1,1,1,1,1,0,0,0,0,0,1,1,1,1,1,1,1,1,1,1,1,0,1,1,1,1,1,0,0,0,0,1,0,0,0,0,1,1,1,0,0,0,0,0,0,0,0,0,0,0,0,0,0,0,0,0,0,0,0,0,0,0,0,0,0,0,0,0,0,0,0,0,0,0,0,0,0,0,0,0,0,0,0,0,0,0,0,0,0],"split_type":[0,0,0,0,0,0,0,0,0,0,0,0,0,0,0,0,0,0,0,0,0,0,0,0,0,0,0,0,0,0,0,0,0,0,0,0,0,0,0,0,0,0,0,0,0,0,0,0,0,0,0,0,0,0,0,0,0,0,0,0,0,0,0,0,0,0,0,0,0,0,0,0,0,0,0,0,0,0,0,0,0,0,0,0,0,0,0,0,0,0,0,0,0,0,0,0,0,0,0,0,0,0,0,0,0,0,0],"sum_hessian":[8E3,5.778E3,2.222E3,4.128E3,1.65E3,7.13E2,1.509E3,1.954E3,2.174E3,1.517E3,1.33E2,7E0,7.06E2,1.4E2,1.369E3,1.951E3,3E0,2.06E3,1.14E2,2.5E1,1.492E3,1.2E1,1.21E2,5E0,2E0,1.2E1,6.94E2,1.2E1,1.28E2,6E1,1.309E3,3.98E2,1.553E3,2.16E2,1.844E3,6.8E1,4.6E1,1.3E1,1.2E1,5.5E1,1.437E3,6E0,6E0,5.8E1,6.3E1,1E0,1E0,8E0,4E0,4.1E1,6.53E2,8E0,4E0,1.7E1,1.11E2,3.7E1,2.3E1,9.2E1,1.217E3,1.88E2,2.1E2,1E2,1.453E3,1.25E2,9.1E1,1.8E1,1.826E3,1E1,5.8E1,2E0,4.4E1,1E1,3E0,7E0,5E0,4E0,5.1E1,1.5E1,1.422E3,1E0,5E0,4E0,2E0,2.5E1,3.3E1,1.8E1,4.5E1,1E0,7E0,2.3E1,1.8E1,1.3E1,6.4E2,5E0,3E0,2E0,1.5E1,9E0,1.02E2,2.6E1,1.1E1,9E0,1.4E1,7E0,8.5E1,5.7E1,1.16E3],"tree_param":{"num_deleted":"0","num_feature":"2","num_nodes":"107","size_leaf_vector":"1"}},{"base_weights":[2.2703753E-4,-3.21787E-2,3.8076103E-2,-4.4377234E-2,3.6845405E-2,-1.0130998E-3,6.1095923E-2,-6.526894E-2,-3.193018E-2,3.2286796E-1,2.955756E-2,1.9722084E-2,-9.167474E-2,2.3444626E-1,5.6159854E-2,-5.5218518E-2,-2.1433142E-1,9.7229757E-4,-5.1608272E-2,1.1301315E-1,6.716281E-2,-3.0320534E-1,3.6476012E-2,1.425778E-4,1.357389E-1,-2.9330787E-1,-1.5298421E-2,2.7710488E-1,-3.243464E-1,-1.520916E-1,5.846313E-2,-6.321845E-2,2.8916698E-2,-4.8982257E-1,-7.995712E-2,-2.0557756E-2,1.4815074E-1,-3.7889387E-2,-2.5666574E-1,-7.799631E-2,7.886267E-2,-5.691102E-1,7.081936E-2,-1.449502E-1,4.244287E-2,4.7496715E-1,-4.3701613E-3,2.646046E-1,-3.556658E-2,3.379934E-1,-3.577735E-1,1.4332223E-1,-1.1447571E-1,9.527206E-2,5.1122195E-1,-2.8689364E-1,7.272303E-2,4.2074424E-1,-2.4933031E-1,2.5644362E-1,5.474015E-2,-9.691524E-3,-2.4100792E-2,-5.9106187E-3,3.219896E-1,8.637271E-2,-1.8943222E-1,7.622662E-2,-5.988334E-2,-2.051989E-2,1.7556334E-2,-1.1595363E-1,6.7137375E-2,-4.68048E-2,-7.484632E-3,-1.1583421E-1,-3.900574E-2,5.741408E-2,-2.0642823E-1,3.749668E-2,-1.4662904E-1,1.0935991E-2,6.4475E-2,1.7702584E-1,1.4410163E-2,-2.1193305E-2,7.761672E-3,1.6784334E-1,3.805672E-2,-3.9879128E-1,4.5842312E-2,1.8414885E-1,5.6914747E-2,-1.9201942E-1,-7.510254E-2,-2.3107182E-2,1.0275031E-1,1.0691475E-1,-4.173546E-2,1.0147993E-1,-1.0259091E-1,2.6442966E-1,1.06826186E-1,1.5932441E-1,-7.7127054E-2,3.414885E-2,1.455318E-1,-1.1038427E-1,1.12930246E-1,1.3915503E-1,-2.437313E-3,-3.358115E-2,1.755507E-2],"categories":[],"categories_nodes":[],"categories_segments":[],"categories_sizes":[],"default_left":[0,0,0,0,0,0,0,0,0,0,0,0,0,0,0,0,0,0,0,0,0,0,0,0,0,0,0,0,0,0,0,0,0,0,0,0,0,0,0,0,0,0,0,0,0,0,0,0,0,0,0,0,0,0,0,0,0,0,0,0,0,0,0,0,0,0,0,0,0,0,0,0,0,0,0,0,0,0,0,0,0,0,0,0,0,0,0,0,0,0,0,0,0,0,0,0,0,0,0,0,0,0,0,0,0,0,0,0,0,0,0,0,0],"id":9,"left_children":[1,3,5,7,9,11,13,15,17,19,21,23,25,27,29,31,33,35,37,-1,39,41,43,45,47,49,51,53,55,57,59,61,63,65,67,69,71,73,75,-1,-1,77,-1,79,81,83,85,87,89,91,93,95,97,99,101,-1,103,105,107,109,111,-1,-1,-1,-1,-1,-1,-1,-1,-1,-1,-1,-1,-1,-1,-1,-1,-1,-1,-1,-1,-1,-1,-1,-1,-1,-1,-1,-1,-1,-1,-1,-1,-1,-1,-1,-1,-1,-1,-1,-1,-1,-1,-1,-1,-1,-1,-1,-1,-1,-1,-1,-1],"loss_changes":[9.814667E0,3.6314669E0,3.3213215E0,9.507036E-1,1.3412054E0,2.5753715E0,1.9745531E0,2.0361238E0,1.4879088E0,1.9498408E-1,1.4683554E0,2.5327609E0,3.922512E0,1.6154664E0,1.0929241E0,8.64712E-1,3.144463E0,2.7313478E0,4.0355988E0,0E0,3.2445452E-1,1.9984752E0,6.784121E-1,2.0484111E0,3.56355E0,2.9697318E0,2.9424784E0,2.5055046E0,1.3242171E0,1.4974499E0,1.634068E0,6.170511E-1,5.7081194E0,3.2657428E0,2.4089446E0,2.8490305E0,4.535136E0,2.0582309E0,1.4252744E0,0E0,0E0,9.4606256E-1,0E0,1.9172629E0,6.140579E-1,4.1398907E-1,1.8998909E0,3.665925E0,1.726261E1,1.6984904E-1,1.7806959E0,3.1863365E0,1.3839377E0,3.8343322E0,1.1793761E0,0E0,7.412262E-1,2.379489E-2,1.7714899E0,2.253566E0,1.3889265E0,0E0,0E0,0E0,0E0,0E0,0E0,0E0,0E0,0E0,0E0,0E0,0E0,0E0,0E0,0E0,0E0,0E0,0E0,0E0,0E0,0E0,0E0,0E0,0E0,0E0,0E0,0E0,0E0,0E0,0E0,0E0,0E0,0E0,0E0,0E0,0E0,0E0,0E0,0E0,0E0,0E0,0E0,0E0,0E0,0E0,0E0,0E0,0E0,0E0,0E0,0E0,0E0],"parents":[2147483647,0,0,1,1,2,2,3,3,4,4,5,5,6,6,7,7,8,8,9,9,10,10,11,11,12,12,13,13,14,14,15,15,16,16,17,17,18,18,20,20,21,21,22,22,23,23,24,24,25,25,26,26,27,27,28,28,29,29,30,30,31,31,32,32,33,33,34,34,35,35,36,36,37,37,38,38,41,41,43,43,44,44,45,45,46,46,47,47,48,48,49,49,50,50,51,51,52,52,53,53,54,54,56,56,57,57,58,58,59,59,60,60],"right_children":[2,4,6,8,10,12,14,16,18,20,22,24,26,28,30,32,34,36,38,-1,40,42,44,46,48,50,52,54,56,58,60,62,64,66,68,70,72,74,76,-1,-1,78,-1,80,82,84,86,88,90,92,94,96,98,100,102,-1,104,106,108,110,112,-1,-1,-1,-1,-1,-1,-1,-1,-1,-1,-1,-1,-1,-1,-1,-1,-1,-1,-1,-1,-1,-1,-1,-1,-1,-1,-1,-1,-1,-1,-1,-1,-1,-1,-1,-1,-1,-1,-1,-1,-1,-1,-1,-1,-1,-1,-1,-1,-1,-1,-1,-1],"split_conditions":[3.1148736E0,1.7926782E0,1.4297433E0,2.6698515E0,1.8085084E0,1.3791701E0,1.4429959E0,2.6498654E0,1.3005826E0,3.0611117E0,1.8146873E0,1.3514183E0,1.3922086E0,3.7991016E0,1.4492681E0,2.6157634E0,1.2841103E0,3.0545764E0,3.0879152E0,1.1301315E-1,3.0711458E0,3.0333982E0,2.4534056E0,1.1277101E0,3.4091008E0,3.1528323E0,1.4055228E0,3.4194863E0,3.8428802E0,3.125026E0,1.4592052E0,1.2815192E0,1.601052E0,1.1905526E0,1.3392572E0,1.2586961E0,1.1680775E0,1.3188256E0,3.1026254E0,-7.799631E-2,7.886267E-2,2.5543501E0,7.081936E-2,2.369014E0,2.663628E0,3.3559148E0,3.2408829E0,1.3600712E0,3.429307E0,3.1201456E0,3.249776E0,1.3980567E0,3.125026E0,3.324392E0,3.5057387E0,-2.8689364E-1,3.8876824E0,3.1201456E0,3.6118097E0,3.4091008E0,1.4754043E0,-9.691524E-3,-2.4100792E-2,-5.9106187E-3,3.219896E-1,8.637271E-2,-1.8943222E-1,7.622662E-2,-5.988334E-2,-2.051989E-2,1.7556334E-2,-1.1595363E-1,6.7137375E-2,-4.68048E-2,-7.484632E-3,-1.1583421E-1,-3.900574E-2,5.741408E-2,-2.0642823E-1,3.749668E-2,-1.4662904E-1,1.0935991E-2,6.4475E-2,1.7702584E-1,1.4410163E-2,-2.1193305E-2,7.761672E-3,1.6784334E-1,3.805672E-2,-3.9879128E-1,4.5842312E-2,1.8414885E-1,5.6914747E-2,-1.9201942E-1,-7.510254E-2,-2.3107182E-2,1.0275031E-1,1.0691475E-1,-4.173546E-2,1.0147993E-1,-1.0259091E-1,2.6442966E-1,1.06826186E-1,1.5932441E-1,-7.7127054E-2,3.414885E-2,1.455318E-1,-1.1038427E-1,1.12930246E-1,1.3915503E-1,-2.437313E-3,-3.358115E-2,1.755507E-2],"split_indices":[0,1,1,0,1,1,1,0,1,0,1,1,1,0,1,0,1,0,0,0,0,0,0,1,0,0,1,0,0,0,1,1,1,1,1,1,1,1,0,0,0,0,0,0,1,0,0,1,0,0,0,1,0,0,0,0,0,0,0,0,1,0,0,0,0,0,0,0,0,0,0,0,0,0,0,0,0,0,0,0,0,0,0,0,0,0,0,0,0,0,0,0,0,0,0,0,0,0,0,0,0,0,0,0,0,0,0,0,0,0,0,0,0],"split_type":[0,0,0,0,0,0,0,0,0,0,0,0,0,0,0,0,0,0,0,0,0,0,0,0,0,0,0,0,0,0,0,0,0,0,0,0,0,0,0,0,0,0,0,0,0,0,0,0,0,0,0,0,0,0,0,0,0,0,0,0,0,0,0,0,0,0,0,0,0,0,0,0,0,0,0,0,0,0,0,0,0,0,0,0,0,0,0,0,0,0,0,0,0,0,0,0,0,0,0,0,0,0,0,0,0,0,0,0,0,0,0,0,0],"sum_hessian":[8E3,4.31E3,3.69E3,3.663E3,6.47E2,1.368E3,2.322E3,1.366E3,2.297E3,1.5E1,6.32E2,1.114E3,2.54E2,6.3E1,2.259E3,1.281E3,8.5E1,8.6E2,1.437E3,1.2E1,3E0,1.2E1,6.2E2,9.54E2,1.6E2,6.9E1,1.85E2,5.9E1,4E0,2.4E1,2.235E3,1.17E3,1.11E2,2.7E1,5.8E1,7.51E2,1.09E2,1.348E3,8.9E1,1E0,2E0,8E0,4E0,1.9E1,6.01E2,8E0,9.46E2,9.1E1,6.9E1,6E0,6.3E1,7.1E1,1.14E2,3.4E1,2.5E1,1E0,3E0,3E0,2.1E1,4E1,2.195E3,4.18E2,7.52E2,1.07E2,4E0,4E0,2.3E1,1.5E1,4.3E1,4.68E2,2.83E2,1.3E1,9.6E1,1.32E2,1.216E3,4.3E1,4.6E1,1E0,7E0,1.1E1,8E0,5.82E2,1.9E1,6E0,2E0,2.96E2,6.5E2,2.8E1,6.3E1,8E0,6.1E1,1E0,5E0,1.6E1,4.7E1,3.4E1,3.7E1,5E0,1.09E2,2.2E1,1.2E1,6E0,1.9E1,1E0,2E0,1E0,2E0,1.8E1,3E0,2.2E1,1.8E1,4.8E1,2.147E3],"tree_param":{"num_deleted":"0","num_feature":"2","num_nodes":"113","size_leaf_vector":"1"}},{"base_weights":[2.2823724E-4,-1.5214858E-2,4.037462E-2,-3.5791226E-2,6.613986E-3,-1.4996591E-1,4.1735616E-2,-3.2551564E-2,-1.16809756E-1,9.782319E-3,-1.0283738E-1,9.061704E-2,-2.0921156E-1,4.3499005E-1,4.10033E-2,-3.8267672E-2,3.2718346E-2,4.824088E-1,-1.6658482E-1,3.3611495E-3,8.4039345E-2,-4.5233E-1,-4.5630768E-2,-8.438183E-2,1.9312228E-1,-3.2400729E-3,1.7615607E-1,-2.218409E-1,4.169293E-2,-3.4167513E-2,-2.4104157E-1,2.0036806E-1,-5.5733602E-2,1.0236927E-1,9.318659E-1,-2.2347642E-1,1.05680756E-1,2.6585878E-4,1.34266E-1,3.3947614E-1,5.6383446E-2,-7.402237E-1,4.118719E-2,5.426159E-1,-9.01785E-2,7.133069E-2,3.0064774E-1,3.4078427E-2,6.911669E-2,-1.1560353E-2,3.1938683E-2,-8.127325E-2,1.9234361E-1,1.022204E-1,5.803216E-3,-1.3463297E-1,2.1654554E-3,-7.497686E-2,6.684368E-2,8.637318E-2,3.1516427E-1,-5.5092208E-2,-3.0423504E-1,-1.5178165E-1,1.2806553E-1,2.410216E-2,-1.2525597E-3,8.073372E-2,1.8501395E-2,6.2537216E-2,3.168309E-1,-1.9652908E-1,2.2357032E-2,7.805425E-2,-2.8509638E-1,-1.0593982E-1,6.8415105E-2,1.5925063E-2,1.9551843E-1,-2.1036099E-1,-8.271914E-3,3.4517087E-2,6.210995E-3,2.5161935E-2,1.2516193E-1,9.428311E-3,4.1902408E-2,4.492251E-2,1.6819485E-2],"categories":[],"categories_nodes":[],"categories_segments":[],"categories_sizes":[],"default_left":[0,0,0,0,0,0,0,0,0,0,0,0,0,0,0,0,0,0,0,0,0,0,0,0,0,0,0,0,0,0,0,0,0,0,0,0,0,0,0,0,0,0,0,0,0,0,0,0,0,0,0,0,0,0,0,0,0,0,0,0,0,0,0,0,0,0,0,0,0,0,0,0,0,0,0,0,0,0,0,0,0,0,0,0,0,0,0,0,0],"id":10,"left_children":[1,3,5,7,9,11,13,15,17,19,21,23,-1,25,27,29,31,33,35,37,39,41,43,-1,45,-1,-1,-1,47,49,51,53,55,57,59,61,63,65,67,69,71,73,75,77,79,81,83,85,87,-1,-1,-1,-1,-1,-1,-1,-1,-1,-1,-1,-1,-1,-1,-1,-1,-1,-1,-1,-1,-1,-1,-1,-1,-1,-1,-1,-1,-1,-1,-1,-1,-1,-1,-1,-1,-1,-1,-1,-1],"loss_changes":[4.9611096E0,2.5959225E0,5.821321E-1,7.770536E-1,9.737193E-1,2.1703384E0,6.18037E-1,1.0690346E0,3.4805422E0,1.2999974E0,1.5588295E0,5.1176786E-1,0E0,2.777332E-1,1.2176428E0,2.1800232E0,3.4366534E0,1.4419084E0,1.6655176E0,1.0173928E0,1.5138198E0,1.5933731E0,1.857081E0,0E0,1.09511554E-1,0E0,0E0,0E0,4.5788026E-1,1.5891709E0,1.5439074E0,2.0261872E0,3.7641385E0,3.1027266E-1,3.238678E-3,2.585392E0,3.9486196E0,8.730177E-1,5.511731E-1,1.7515705E0,2.5913506E0,1.7185338E0,4.4895136E-1,2.3247361E-1,2.4671423E0,1.0900414E-2,9.134245E-2,4.7900915E-1,4.9460268E-1,0E0,0E0,0E0,0E0,0E0,0E0,0E0,0E0,0E0,0E0,0E0,0E0,0E0,0E0,0E0,0E0,0E0,0E0,0E0,0E0,0E0,0E0,0E0,0E0,0E0,0E0,0E0,0E0,0E0,0E0,0E0,0E0,0E0,0E0,0E0,0E0,0E0,0E0,0E0,0E0],"parents":[2147483647,0,0,1,1,2,2,3,3,4,4,5,5,6,6,7,7,8,8,9,9,10,10,11,11,13,13,14,14,15,15,16,16,17,17,18,18,19,19,20,20,21,21,22,22,24,24,28,28,29,29,30,30,31,31,32,32,33,33,34,34,35,35,36,36,37,37,38,38,39,39,40,40,41,41,42,42,43,43,44,44,45,45,46,46,47,47,48,48],"right_children":[2,4,6,8,10,12,14,16,18,20,22,24,-1,26,28,30,32,34,36,38,40,42,44,-1,46,-1,-1,-1,48,50,52,54,56,58,60,62,64,66,68,70,72,74,76,78,80,82,84,86,88,-1,-1,-1,-1,-1,-1,-1,-1,-1,-1,-1,-1,-1,-1,-1,-1,-1,-1,-1,-1,-1,-1,-1,-1,-1,-1,-1,-1,-1,-1,-1,-1,-1,-1,-1,-1,-1,-1,-1,-1],"split_conditions":[1.8001622E0,2.98656E0,2.3940392E0,2.9640105E0,1.773061E0,2.369014E0,2.4399173E0,2.9184928E0,1.1962442E0,1.657419E0,3.1622806E0,1.8843069E0,-2.0921156E-1,1.8560796E0,2.4534056E0,2.9083955E0,1.298457E0,1.187197E0,1.4626611E0,3.9083562E0,3.0711458E0,1.7926782E0,3.1816158E0,-8.438183E-2,2.433668E0,-3.2400729E-3,1.7615607E-1,-2.218409E-1,3.5959156E0,2.8932421E0,1.7172546E0,2.9435856E0,1.3188256E0,2.966556E0,2.966556E0,1.4560198E0,2.970328E0,3.008287E0,1.2968379E0,3.0611117E0,3.1065924E0,3.0247474E0,3.008287E0,1.7839094E0,3.2054994E0,2.2422838E0,2.281034E0,2.663628E0,3.6360617E0,-1.1560353E-2,3.1938683E-2,-8.127325E-2,1.9234361E-1,1.022204E-1,5.803216E-3,-1.3463297E-1,2.1654554E-3,-7.497686E-2,6.684368E-2,8.637318E-2,3.1516427E-1,-5.5092208E-2,-3.0423504E-1,-1.5178165E-1,1.2806553E-1,2.410216E-2,-1.2525597E-3,8.073372E-2,1.8501395E-2,6.2537216E-2,3.168309E-1,-1.9652908E-1,2.2357032E-2,7.805425E-2,-2.8509638E-1,-1.0593982E-1,6.8415105E-2,1.5925063E-2,1.9551843E-1,-2.1036099E-1,-8.271914E-3,3.4517087E-2,6.210995E-3,2.5161935E-2,1.2516193E-1,9.428311E-3,4.1902408E-2,4.492251E-2,1.6819485E-2],"split_indices":[1,0,0,0,1,0,0,0,1,1,0,0,0,1,0,0,1,1,1,0,0,1,0,0,1,0,0,0,0,0,1,0,1,0,0,1,0,0,1,0,0,0,0,1,0,0,0,1,0,0,0,0,0,0,0,0,0,0,0,0,0,0,0,0,0,0,0,0,0,0,0,0,0,0,0,0,0,0,0,0,0,0,0,0,0,0,0,0,0],"split_type":[0,0,0,0,0,0,0,0,0,0,0,0,0,0,0,0,0,0,0,0,0,0,0,0,0,0,0,0,0,0,0,0,0,0,0,0,0,0,0,0,0,0,0,0,0,0,0,0,0,0,0,0,0,0,0,0,0,0,0,0,0,0,0,0,0,0,0,0,0,0,0,0,0,0,0,0,0,0,0,0,0,0,0,0,0,0,0,0,0],"sum_hessian":[8E3,5.778E3,2.222E3,2.974E3,2.804E3,1.5E1,2.207E3,2.861E3,1.13E2,2.726E3,7.8E1,1.1E1,4E0,3E0,2.204E3,2.631E3,2.3E2,8E0,1.05E2,2.51E3,2.16E2,1E1,6.8E1,2E0,9E0,1E0,2E0,1E0,2.203E3,2.58E3,5.1E1,7.9E1,1.51E2,5E0,3E0,8.7E1,1.8E1,2.453E3,5.7E1,2E1,1.96E2,6E0,4E0,4E0,6.4E1,5E0,4E0,1.726E3,4.77E2,2.503E3,7.7E1,5E1,1E0,4.4E1,3.5E1,2E1,1.31E2,1E0,4E0,1E0,2E0,8.4E1,3E0,6E0,1.2E1,1.28E2,2.325E3,1.9E1,3.8E1,1.8E1,2E0,4E0,1.92E2,1E0,5E0,1E0,3E0,1E0,3E0,5E0,5.9E1,2E0,3E0,2E0,2E0,1.685E3,4.1E1,6.5E1,4.12E2],"tree_param":{"num_deleted":"0","num_feature":"2","num_nodes":"89","size_leaf_vector":"1"}},{"base_weights":[1.7907396E-4,-1.7423484E-2,2.013798E-2,-1.4329317E-2,-9.803679E-2,2.9481792E-1,1.8882036E-2,-1.6645573E-2,2.713553E-1,-8.9409816E-1,-7.138094E-2,6.6193336E-1,8.669206E-2,-7.3089205E-2,2.4162693E-2,-1.4372638E-2,-1.6076678E-1,3.803775E-1,1.873116E-2,-3.0265E-1,-6.527367E-2,3.2903802E-1,-1.3061227E-1,2.513582E-1,2.9661676E-1,-1.4505585E-1,2.490863E-1,-2.323963E-2,-3.4892428E-1,3.0267465E-1,2.2010958E-2,-1.6706623E-2,2.7570954E-1,1.09534994E-1,-2.4023128E-1,2.457107E-1,3.5887575E-1,-5.322883E-1,2.918995E-1,4.927407E-1,-2.606182E-1,-4.872878E-1,-9.791838E-2,-7.043041E-2,4.916563E-1,4.341739E-1,-2.2836065E-2,-8.707276E-2,2.4028619E-1,3.2284713E-1,-4.322989E-1,9.358679E-1,-1.9113748E-1,-2.074752E-1,2.3918113E-2,-8.69897E-3,3.163141E-3,-2.5732934E-1,1.0198292E-1,-1.2218671E-1,1.22602776E-1,-2.5033596E-1,-3.6397908E-2,-1.3448489E-2,1.0179178E-1,-2.4990578E-1,-4.6311475E-2,1.3960463E-1,2.8428068E-2,3.2739427E-2,1.9715627E-1,5.689421E-2,-1.8720332E-1,1.4396274E-2,-2.0820436E-1,1.9535604E-1,-3.8494535E-2,3.562267E-2,1.8562268E-1,1.8654428E-1,1.1778641E-2,-6.523222E-2,2.4052585E-2,-2.4737823E-3,-7.5990506E-2,9.690773E-4,1.8689227E-1,-2.657293E-1,-1.0473233E-1,3.9125556E-1,1.7660584E-1,-1.1168615E-1,2.1538205E-1,-2.183434E-1,9.80078E-2,3.4219787E-2,5.55866E-3],"categories":[],"categories_nodes":[],"categories_segments":[],"categories_sizes":[],"default_left":[0,0,0,0,0,0,0,0,0,0,0,0,0,0,0,0,0,0,0,0,0,0,0,0,0,0,0,0,0,0,0,0,0,0,0,0,0,0,0,0,0,0,0,0,0,0,0,0,0,0,0,0,0,0,0,0,0,0,0,0,0,0,0,0,0,0,0,0,0,0,0,0,0,0,0,0,0,0,0,0,0,0,0,0,0,0,0,0,0,0,0,0,0,0,0,0,0],"id":11,"left_children":[1,3,5,7,9,11,13,15,17,19,21,23,25,27,29,31,33,35,37,-1,-1,39,41,43,-1,-1,45,47,49,51,53,55,57,59,61,63,-1,65,67,69,71,73,75,-1,77,79,81,83,85,-1,87,89,91,93,95,-1,-1,-1,-1,-1,-1,-1,-1,-1,-1,-1,-1,-1,-1,-1,-1,-1,-1,-1,-1,-1,-1,-1,-1,-1,-1,-1,-1,-1,-1,-1,-1,-1,-1,-1,-1,-1,-1,-1,-1,-1,-1],"loss_changes":[2.8113248E0,1.0591763E0,1.288119E0,2.7149165E0,3.2676692E0,1.2415215E0,1.8152523E0,1.3289663E0,9.0174913E-1,1.6860223E-1,3.6717305E0,5.565052E-1,1.231627E0,2.783194E0,2.1100094E0,2.714151E0,1.3795156E0,2.2331073E0,1.8111066E0,0E0,0E0,2.0589836E0,1.5148745E0,5.82686E-1,0E0,0E0,5.1320946E-1,2.9310727E0,4.148505E0,8.6212E0,1.5394186E0,1.3302182E0,2.6214154E0,2.4854972E0,3.360898E0,5.862647E-1,0E0,3.2601047E-1,2.2945267E-1,9.376137E-1,9.3645847E-1,1.2505169E0,2.90708E0,0E0,6.870556E-2,4.2019463E-1,1.1766581E-1,1.832373E0,3.0824156E0,0E0,8.225026E-1,7.667217E-1,2.9021459E0,8.298228E0,1.6875998E0,0E0,0E0,0E0,0E0,0E0,0E0,0E0,0E0,0E0,0E0,0E0,0E0,0E0,0E0,0E0,0E0,0E0,0E0,0E0,0E0,0E0,0E0,0E0,0E0,0E0,0E0,0E0,0E0,0E0,0E0,0E0,0E0,0E0,0E0,0E0,0E0,0E0,0E0,0E0,0E0,0E0,0E0],"parents":[2147483647,0,0,1,1,2,2,3,3,4,4,5,5,6,6,7,7,8,8,9,9,10,10,11,11,12,12,13,13,14,14,15,15,16,16,17,17,18,18,21,21,22,22,23,23,26,26,27,27,28,28,29,29,30,30,31,31,32,32,33,33,34,34,35,35,37,37,38,38,39,39,40,40,41,41,42,42,44,44,45,45,46,46,47,47,48,48,50,50,51,51,52,52,53,53,54,54],"right_children":[2,4,6,8,10,12,14,16,18,20,22,24,26,28,30,32,34,36,38,-1,-1,40,42,44,-1,-1,46,48,50,52,54,56,58,60,62,64,-1,66,68,70,72,74,76,-1,78,80,82,84,86,-1,88,90,92,94,96,-1,-1,-1,-1,-1,-1,-1,-1,-1,-1,-1,-1,-1,-1,-1,-1,-1,-1,-1,-1,-1,-1,-1,-1,-1,-1,-1,-1,-1,-1,-1,-1,-1,-1,-1,-1,-1,-1,-1,-1,-1,-1],"split_conditions":[3.1065924E0,3.0849922E0,1.1352248E0,3.0793037E0,1.1586654E0,3.1337729E0,1.2276987E0,3.0711458E0,1.5370612E0,3.1026254E0,1.2542764E0,1.1277101E0,3.1622806E0,1.2207218E0,1.2320113E0,3.06491E0,1.3020958E0,1.4492681E0,1.6363168E0,-3.0265E-1,-6.527367E-2,3.1026254E0,1.2797886E0,3.1148736E0,2.9661676E-1,-1.4505585E-1,1.1277101E0,3.5959156E0,3.1201456E0,3.249776E0,1.2364358E0,1.4665015E0,1.1905526E0,1.2156948E0,1.3367583E0,1.2344091E0,3.5887575E-1,1.5655551E0,1.9766629E0,3.0879152E0,1.1993058E0,1.2561569E0,1.288895E0,-7.043041E-2,3.1201456E0,3.3559148E0,3.2298646E0,3.3829286E0,1.1993058E0,3.2284713E-1,3.1572149E0,3.1391115E0,3.6279283E0,3.324392E0,1.2736092E0,-8.69897E-3,3.163141E-3,-2.5732934E-1,1.0198292E-1,-1.2218671E-1,1.22602776E-1,-2.5033596E-1,-3.6397908E-2,-1.3448489E-2,1.0179178E-1,-2.4990578E-1,-4.6311475E-2,1.3960463E-1,2.8428068E-2,3.2739427E-2,1.9715627E-1,5.689421E-2,-1.8720332E-1,1.4396274E-2,-2.0820436E-1,1.9535604E-1,-3.8494535E-2,3.562267E-2,1.8562268E-1,1.8654428E-1,1.1778641E-2,-6.523222E-2,2.4052585E-2,-2.4737823E-3,-7.5990506E-2,9.690773E-4,1.8689227E-1,-2.657293E-1,-1.0473233E-1,3.9125556E-1,1.7660584E-1,-1.1168615E-1,2.1538205E-1,-2.183434E-1,9.80078E-2,3.4219787E-2,5.55866E-3],"split_indices":[0,0,1,0,1,0,1,0,1,0,1,1,0,1,1,0,1,1,1,0,0,0,1,0,0,0,1,0,0,0,1,1,1,1,1,1,0,1,1,0,1,1,1,0,0,0,0,0,1,0,0,0,0,0,1,0,0,0,0,0,0,0,0,0,0,0,0,0,0,0,0,0,0,0,0,0,0,0,0,0,0,0,0,0,0,0,0,0,0,0,0,0,0,0,0,0,0],"split_type":[0,0,0,0,0,0,0,0,0,0,0,0,0,0,0,0,0,0,0,0,0,0,0,0,0,0,0,0,0,0,0,0,0,0,0,0,0,0,0,0,0,0,0,0,0,0,0,0,0,0,0,0,0,0,0,0,0,0,0,0,0,0,0,0,0,0,0,0,0,0,0,0,0,0,0,0,0,0,0,0,0,0,0,0,0,0,0,0,0,0,0,0,0,0,0,0,0],"sum_hessian":[8E3,4.251E3,3.749E3,4.095E3,1.56E2,1.6E1,3.733E3,4.063E3,3.2E1,4E0,1.52E2,5E0,1.1E1,2.02E2,3.531E3,4.001E3,6.2E1,2.2E1,1E1,3E0,1E0,1.9E1,1.33E2,3E0,2E0,2E0,9E0,1.72E2,3E1,2.6E1,3.505E3,3.97E3,3.1E1,1.4E1,4.8E1,2E1,2E0,3E0,7E0,1.5E1,4E0,1E1,1.23E2,1E0,2E0,5E0,4E0,1.39E2,3.3E1,1E0,2.9E1,1.1E1,1.5E1,2.8E1,3.477E3,2.736E3,1.234E3,1E0,3E1,5E0,9E0,7E0,4.1E1,5E0,1.5E1,1E0,2E0,3E0,4E0,5E0,1E1,2E0,2E0,3E0,7E0,4E0,1.19E2,1E0,1E0,3E0,2E0,1E0,3E0,9.5E1,4.4E1,2.1E1,1.2E1,3E0,2.6E1,4E0,7E0,1.3E1,2E0,1.4E1,1.4E1,1.95E2,3.282E3],"tree_param":{"num_deleted":"0","num_feature":"2","num_nodes":"97","size_leaf_vector":"1"}},{"base_weights":[2.1021072E-4,-7.939206E-3,2.993038E-2,-1.2892662E-2,2.3980077E-2,-6.28793E-2,3.3434644E-2,-1.1143777E-2,-1.5504599E-1,2.512597E-1,1.8723063E-2,-3.48297E-1,-2.6442196E-2,1.4594072E-1,3.0850803E-2,-3.4134388E-2,-4.5298594E-3,-2.8157553E-1,3.814767E-2,-1.8438177E-1,4.2001608E-1,1.0594054E-1,7.378277E-3,2.1027803E-2,-4.7300017E-1,5.7063427E-2,5.186915E-1,-3.5462463E-1,3.2978542E-2,-1.0570326E-2,-1.2185499E-1,1.03580765E-1,-1.0659543E-2,-6.268153E-2,-5.740391E-1,5.7651895E-1,-1.1041484E-1,9.47566E-2,-2.3701105E-1,2.828987E-1,1.9165844E-1,3.647435E-2,3.8188562E-1,-2.2192316E-1,1.4571771E-2,1.5787882E-1,-6.318748E-2,6.347008E-2,-6.52227E-1,1.0848068E-1,-3.1712317E-1,1.8849142E-1,-2.0848203E-2,-2.2795667E-1,-2.0898882E-1,3.8328234E-2,-4.2825326E-2,-4.8276037E-3,5.8113936E-2,-3.1793535E-2,-1.7904343E-1,2.0345801E-2,2.5862804E-1,-4.6497597E-3,1.0029632E-2,-4.3052375E-2,1.9447854E-2,-2.666451E-1,-1.3292995E-1,2.7464706E-1,5.3448237E-2,-1.2161617E-1,-1.2751225E-2,-1.0692673E-1,1.5430504E-1,-6.574314E-2,9.218913E-2,-5.249744E-2,3.262942E-2,-1.2525402E-1,1.5014765E-1,-3.1709407E-2,9.722616E-3,-2.6014458E-2,1.1067994E-1,-1.5840721E-1,8.645756E-3,-2.5185776E-1,1.4545263E-2,-1.7226005E-2,9.129644E-2,-1.9941555E-1,1.0884941E-1,-1.5296788E-2,-1.0627231E-1,1.0336889E-2,4.323598E-2,1.6345617E-1,-2.309245E-2],"categories":[],"categories_nodes":[],"categories_segments":[],"categories_sizes":[],"default_left":[0,0,0,0,0,0,0,0,0,0,0,0,0,0,0,0,0,0,0,0,0,0,0,0,0,0,0,0,0,0,0,0,0,0,0,0,0,0,0,0,0,0,0,0,0,0,0,0,0,0,0,0,0,0,0,0,0,0,0,0,0,0,0,0,0,0,0,0,0,0,0,0,0,0,0,0,0,0,0,0,0,0,0,0,0,0,0,0,0,0,0,0,0,0,0,0,0,0,0],"id":12,"left_children":[1,3,5,7,9,11,13,15,17,19,21,-1,23,25,27,29,31,33,35,37,39,41,43,45,47,49,51,53,55,57,59,61,63,65,67,69,71,73,-1,-1,75,77,79,-1,81,83,85,-1,87,89,91,-1,-1,-1,93,95,97,-1,-1,-1,-1,-1,-1,-1,-1,-1,-1,-1,-1,-1,-1,-1,-1,-1,-1,-1,-1,-1,-1,-1,-1,-1,-1,-1,-1,-1,-1,-1,-1,-1,-1,-1,-1,-1,-1,-1,-1,-1,-1],"loss_changes":[1.9380963E0,9.9324465E-1,5.621481E-1,1.3499639E0,1.0037172E0,2.4900553E0,4.7805595E-1,8.16701E-1,1.6240922E0,1.4742715E0,8.165153E-1,0E0,1.3242288E0,1.1961776E0,1.343686E0,2.479176E0,2.7664838E0,2.5247593E0,2.2231646E0,1.0892305E0,1.4912362E0,1.8071122E0,3.9448538E0,6.66898E-1,8.7414634E-1,6.3083076E-1,4.9497402E-1,3.7234378E-1,6.5697384E-1,1.0713227E0,1.8520803E0,6.0176454E0,8.4340227E-1,2.5664675E-1,3.068509E-1,6.470872E-1,4.2346892E-1,1.1298847E0,0E0,0E0,5.898932E-1,1.1961275E0,2.010427E0,0E0,1.560874E0,1.1676879E0,1.5548673E0,0E0,6.969156E-1,9.271977E-1,1.1865766E0,0E0,0E0,0E0,1.6553575E-1,6.13559E-1,2.189318E0,0E0,0E0,0E0,0E0,0E0,0E0,0E0,0E0,0E0,0E0,0E0,0E0,0E0,0E0,0E0,0E0,0E0,0E0,0E0,0E0,0E0,0E0,0E0,0E0,0E0,0E0,0E0,0E0,0E0,0E0,0E0,0E0,0E0,0E0,0E0,0E0,0E0,0E0,0E0,0E0,0E0,0E0],"parents":[2147483647,0,0,1,1,2,2,3,3,4,4,5,5,6,6,7,7,8,8,9,9,10,10,12,12,13,13,14,14,15,15,16,16,17,17,18,18,19,19,20,20,21,21,22,22,23,23,24,24,25,25,26,26,27,27,28,28,29,29,30,30,31,31,32,32,33,33,34,34,35,35,36,36,37,37,40,40,41,41,42,42,44,44,45,45,46,46,48,48,49,49,50,50,54,54,55,55,56,56],"right_children":[2,4,6,8,10,12,14,16,18,20,22,-1,24,26,28,30,32,34,36,38,40,42,44,46,48,50,52,54,56,58,60,62,64,66,68,70,72,74,-1,-1,76,78,80,-1,82,84,86,-1,88,90,92,-1,-1,-1,94,96,98,-1,-1,-1,-1,-1,-1,-1,-1,-1,-1,-1,-1,-1,-1,-1,-1,-1,-1,-1,-1,-1,-1,-1,-1,-1,-1,-1,-1,-1,-1,-1,-1,-1,-1,-1,-1,-1,-1,-1,-1,-1,-1],"split_conditions":[1.9166368E0,3.4997878E0,2.6816232E0,3.482065E0,3.5057387E0,1.9372424E0,2.7528229E0,1.2586961E0,1.4492681E0,1.3980567E0,1.2561569E0,-3.48297E-1,2.6763082E0,2.7372005E0,2.764199E0,1.2428046E0,1.2736092E0,1.3299397E0,1.540784E0,1.2938683E0,1.4461554E0,1.2459245E0,1.2608339E0,2.102754E0,1.9834278E0,2.7317014E0,2.2661066E0,1.9899968E0,2.4901338E0,3.4194863E0,3.4142466E0,3.395345E0,3.3450692E0,1.262997E0,1.377718E0,3.4935498E0,1.6746335E0,1.2320113E0,-2.3701105E-1,2.828987E-1,1.5222278E0,3.5796657E0,3.5204766E0,-2.2192316E-1,1.3239769E0,2.004211E0,2.1938505E0,6.347008E-2,2.0842397E0,2.2825203E0,2.663628E0,1.8849142E-1,-2.0848203E-2,-2.2795667E-1,2.7586694E0,2.4112604E0,2.8875241E0,-4.8276037E-3,5.8113936E-2,-3.1793535E-2,-1.7904343E-1,2.0345801E-2,2.5862804E-1,-4.6497597E-3,1.0029632E-2,-4.3052375E-2,1.9447854E-2,-2.666451E-1,-1.3292995E-1,2.7464706E-1,5.3448237E-2,-1.2161617E-1,-1.2751225E-2,-1.0692673E-1,1.5430504E-1,-6.574314E-2,9.218913E-2,-5.249744E-2,3.262942E-2,-1.2525402E-1,1.5014765E-1,-3.1709407E-2,9.722616E-3,-2.6014458E-2,1.1067994E-1,-1.5840721E-1,8.645756E-3,-2.5185776E-1,1.4545263E-2,-1.7226005E-2,9.129644E-2,-1.9941555E-1,1.0884941E-1,-1.5296788E-2,-1.0627231E-1,1.0336889E-2,4.323598E-2,1.6345617E-1,-2.309245E-2],"split_indices":[1,0,0,0,0,1,0,1,1,1,1,0,0,0,0,1,1,1,1,1,1,1,1,1,1,0,1,1,1,0,0,0,0,1,1,0,1,1,0,0,1,0,0,0,1,1,1,0,1,1,1,0,0,0,0,1,0,0,0,0,0,0,0,0,0,0,0,0,0,0,0,0,0,0,0,0,0,0,0,0,0,0,0,0,0,0,0,0,0,0,0,0,0,0,0,0,0,0,0],"split_type":[0,0,0,0,0,0,0,0,0,0,0,0,0,0,0,0,0,0,0,0,0,0,0,0,0,0,0,0,0,0,0,0,0,0,0,0,0,0,0,0,0,0,0,0,0,0,0,0,0,0,0,0,0,0,0,0,0,0,0,0,0,0,0,0,0,0,0,0,0,0,0,0,0,0,0,0,0,0,0,0,0,0,0,0,0,0,0,0,0,0,0,0,0,0,0,0,0,0,0],"sum_hessian":[8E3,6.279E3,1.721E3,5.436E3,8.43E2,6.2E1,1.659E3,5.371E3,6.5E1,1.8E1,8.25E2,1E0,6.1E1,3.6E1,1.623E3,1.199E3,4.172E3,3.9E1,2.6E1,5E0,1.3E1,9.4E1,7.31E2,5.6E1,5E0,3E1,6E0,8E0,1.615E3,9.46E2,2.53E2,2.23E2,3.949E3,2.3E1,1.6E1,5E0,2.1E1,4E0,1E0,3E0,1E1,7.6E1,1.8E1,6E0,7.25E2,2.1E1,3.5E1,1E0,4E0,2.7E1,3E0,5E0,1E0,1E0,7E0,1.509E3,1.06E2,9.22E2,2.4E1,2.46E2,7E0,2.14E2,9E0,3.559E3,3.9E2,1.4E1,9E0,3E0,1.3E1,2E0,3E0,3E0,1.8E1,2E0,2E0,2E0,8E0,1.9E1,5.7E1,2E0,1.6E1,9.3E1,6.32E2,1E1,1.1E1,5E0,3E1,3E0,1E0,1.5E1,1.2E1,2E0,1E0,4E0,3E0,1.457E3,5.2E1,5E0,1.01E2],"tree_param":{"num_deleted":"0","num_feature":"2","num_nodes":"99","size_leaf_vector":"1"}},{"base_weights":[4.549775E-5,-1.6315313E-2,7.763989E-3,-1.8450473E-2,1.9290076E-1,1.265421E-1,5.7410654E-3,-1.7534476E-2,-3.061716E-1,-3.1120777E-3,2.652798E-1,4.0353104E-2,2.8419203E-1,-2.0971052E-1,7.2001233E-3,-1.3444697E-2,-6.789714E-2,4.062556E-2,-3.886014E-1,2.7711567E-1,-1.6875908E-1,4.5560837E-2,1.3754125E-1,2.1247736E-1,-2.0911995E-1,8.8431346E-1,1.1169041E-1,-1.4319064E-1,-5.9349567E-1,-1.168759E-4,2.5606496E-2,-1.643317E-2,2.1761398E-1,2.2539301E-1,-1.0372771E-1,-5.141839E-1,-4.976352E-2,1.7767763E-2,3.712541E-1,1.9333956E-1,-2.2444212E-1,8.162691E-2,6.6025054E-1,-1.8182522E-1,-1.0464659E-1,1.2049577E0,3.425908E-1,4.8827326E-1,-8.280603E-2,-3.9266327E-1,-5.763177E-2,-2.5369498E-1,-4.3052867E-2,-2.2734508E-3,6.2305853E-2,3.0783564E-1,2.0264164E-2,-5.425259E-3,2.9485757E-2,8.975931E-2,-1.16243884E-1,-4.1178577E-2,1.5264681E-1,-1.154517E-1,-1.9742247E-2,-4.506834E-2,-1.7028478E-1,1.2363482E-2,-3.4757067E-2,1.4832588E-1,4.9617723E-2,5.6770137E-3,1.2587601E-1,-1.5953246E-1,1.04633406E-1,-1.8086944E-2,1.907068E-1,2.875196E-1,-4.6838716E-2,1.1110453E-2,-8.930105E-2,9.099155E-2,4.2132208E-1,1.5802422E-1,-3.148184E-2,-5.5800512E-2,2.1224849E-1,-8.9756444E-2,2.4627179E-2,-3.7484217E-2,-1.383232E-1,1.6227308E-1,-3.9959025E-2,6.1052945E-4,-1.4101788E-2,3.8113385E-2,1.2023174E-2,7.087885E-2,1.769454E-1,-3.8847093E-2,7.286751E-3],"categories":[],"categories_nodes":[],"categories_segments":[],"categories_sizes":[],"default_left":[0,0,0,0,0,0,0,0,0,0,0,0,0,0,0,0,0,0,0,0,0,0,0,0,0,0,0,0,0,0,0,0,0,0,0,0,0,0,0,0,0,0,0,0,0,0,0,0,0,0,0,0,0,0,0,0,0,0,0,0,0,0,0,0,0,0,0,0,0,0,0,0,0,0,0,0,0,0,0,0,0,0,0,0,0,0,0,0,0,0,0,0,0,0,0,0,0,0,0,0,0],"id":13,"left_children":[1,3,5,7,9,11,13,15,17,19,21,23,25,27,29,31,33,-1,35,37,-1,39,-1,41,43,45,47,49,51,53,55,57,59,61,63,65,67,-1,69,71,73,75,77,-1,79,81,83,85,87,89,91,-1,-1,93,95,97,99,-1,-1,-1,-1,-1,-1,-1,-1,-1,-1,-1,-1,-1,-1,-1,-1,-1,-1,-1,-1,-1,-1,-1,-1,-1,-1,-1,-1,-1,-1,-1,-1,-1,-1,-1,-1,-1,-1,-1,-1,-1,-1,-1,-1],"loss_changes":[1.0104991E0,1.1493688E0,1.3056705E0,6.6405237E-1,3.6969346E-1,1.2250116E0,1.6823733E0,5.208147E-1,3.4382534E-1,1.4100018E0,7.856184E-1,2.620855E0,3.2139323E0,8.340732E-1,7.154201E-1,1.6221377E0,2.0200424E0,0E0,2.7227712E-1,1.0108301E-1,0E0,4.424004E-1,0E0,2.0553937E0,9.7337973E-1,8.030944E-1,1.9447765E0,6.603972E-1,4.4597077E-1,5.1196426E-1,2.2719903E0,4.402482E-1,1.5969064E0,2.2283726E0,1.7868412E0,1.196301E-2,2.2813205E-2,0E0,1.9646943E-2,2.682881E-1,8.901485E-1,2.3186164E0,2.0968497E0,0E0,5.853291E-1,2.9337168E-1,3.8493913E-1,1.4619362E0,6.668128E-1,8.89138E-2,1.2027677E0,0E0,0E0,7.085792E-1,1.7766806E-1,4.2575145E-1,8.976452E-1,0E0,0E0,0E0,0E0,0E0,0E0,0E0,0E0,0E0,0E0,0E0,0E0,0E0,0E0,0E0,0E0,0E0,0E0,0E0,0E0,0E0,0E0,0E0,0E0,0E0,0E0,0E0,0E0,0E0,0E0,0E0,0E0,0E0,0E0,0E0,0E0,0E0,0E0,0E0,0E0,0E0,0E0,0E0,0E0],"parents":[2147483647,0,0,1,1,2,2,3,3,4,4,5,5,6,6,7,7,8,8,9,9,10,10,11,11,12,12,13,13,14,14,15,15,16,16,18,18,19,19,21,21,23,23,24,24,25,25,26,26,27,27,28,28,29,29,30,30,31,31,32,32,33,33,34,34,35,35,36,36,38,38,39,39,40,40,41,41,42,42,44,44,45,45,46,46,47,47,48,48,49,49,50,50,53,53,54,54,55,55,56,56],"right_children":[2,4,6,8,10,12,14,16,18,20,22,24,26,28,30,32,34,-1,36,38,-1,40,-1,42,44,46,48,50,52,54,56,58,60,62,64,66,68,-1,70,72,74,76,78,-1,80,82,84,86,88,90,92,-1,-1,94,96,98,100,-1,-1,-1,-1,-1,-1,-1,-1,-1,-1,-1,-1,-1,-1,-1,-1,-1,-1,-1,-1,-1,-1,-1,-1,-1,-1,-1,-1,-1,-1,-1,-1,-1,-1,-1,-1,-1,-1,-1,-1,-1,-1,-1,-1],"split_conditions":[2.8601E0,2.4901338E0,2.8729835E0,2.433668E0,2.3940392E0,1.4214224E0,2.8778744E0,2.832489E0,2.4074314E0,2.3827243E0,2.663628E0,1.3299397E0,1.4910877E0,1.9635231E0,1.9166368E0,2.8279023E0,1.2156948E0,4.062556E-2,2.6639688E0,2.281034E0,-1.6875908E-1,2.7317014E0,1.3754125E-1,1.2938683E0,1.340271E0,2.8692286E0,2.8651018E0,1.2408302E0,2.03234E0,3.9083562E0,2.9083955E0,2.2378626E0,1.8496017E0,1.1733699E0,1.2608339E0,2.6356375E0,2.6816232E0,1.7767763E-2,2.3186862E0,2.7018635E0,2.7372005E0,2.8692286E0,2.8692286E0,-1.8182522E-1,1.3753737E0,2.8651018E0,1.4348888E0,1.5577962E0,2.8692286E0,1.1733699E0,1.2542764E0,-2.5369498E-1,-4.3052867E-2,3.6545324E0,1.4101971E0,2.902975E0,2.9478443E0,-5.425259E-3,2.9485757E-2,8.975931E-2,-1.16243884E-1,-4.1178577E-2,1.5264681E-1,-1.154517E-1,-1.9742247E-2,-4.506834E-2,-1.7028478E-1,1.2363482E-2,-3.4757067E-2,1.4832588E-1,4.9617723E-2,5.6770137E-3,1.2587601E-1,-1.5953246E-1,1.04633406E-1,-1.8086944E-2,1.907068E-1,2.875196E-1,-4.6838716E-2,1.1110453E-2,-8.930105E-2,9.099155E-2,4.2132208E-1,1.5802422E-1,-3.148184E-2,-5.5800512E-2,2.1224849E-1,-8.9756444E-2,2.4627179E-2,-3.7484217E-2,-1.383232E-1,1.6227308E-1,-3.9959025E-2,6.1052945E-4,-1.4101788E-2,3.8113385E-2,1.2023174E-2,7.087885E-2,1.769454E-1,-3.8847093E-2,7.286751E-3],"split_indices":[0,1,0,1,0,1,0,0,0,0,1,1,1,1,1,0,1,0,0,0,0,0,0,1,1,0,0,1,1,0,0,1,1,1,1,0,0,0,0,0,0,0,0,0,1,0,1,1,0,1,1,0,0,0,1,0,0,0,0,0,0,0,0,0,0,0,0,0,0,0,0,0,0,0,0,0,0,0,0,0,0,0,0,0,0,0,0,0,0,0,0,0,0,0,0,0,0,0,0,0,0],"split_type":[0,0,0,0,0,0,0,0,0,0,0,0,0,0,0,0,0,0,0,0,0,0,0,0,0,0,0,0,0,0,0,0,0,0,0,0,0,0,0,0,0,0,0,0,0,0,0,0,0,0,0,0,0,0,0,0,0,0,0,0,0,0,0,0,0,0,0,0,0,0,0,0,0,0,0,0,0,0,0,0,0,0,0,0,0,0,0,0,0,0,0,0,0,0,0,0,0,0,0,0,0],"sum_hessian":[8E3,2.564E3,5.436E3,2.539E3,2.5E1,9E1,5.346E3,2.532E3,7E0,7E0,1.8E1,5.9E1,3.1E1,3.5E1,5.311E3,2.343E3,1.89E2,1E0,6E0,5E0,2E0,9E0,9E0,3.5E1,2.4E1,6E0,2.5E1,3.1E1,4E0,3.801E3,1.51E3,2.314E3,2.9E1,2E1,1.69E2,4E0,2E0,2E0,3E0,6E0,3E0,2.8E1,7E0,4E0,2E1,3E0,3E0,8E0,1.7E1,7E0,2.4E1,2E0,2E0,3.675E3,1.26E2,2.7E1,1.483E3,2.282E3,3.2E1,2.6E1,3E0,9E0,1.1E1,1.9E1,1.5E2,1E0,3E0,1E0,1E0,1E0,2E0,4E0,2E0,2E0,1E0,2.3E1,5E0,5E0,2E0,1.2E1,8E0,1E0,2E0,2E0,1E0,2E0,6E0,7E0,1E1,2E0,5E0,2E0,2.2E1,3.353E3,3.22E2,3.1E1,9.5E1,2.3E1,4E0,3.8E1,1.445E3],"tree_param":{"num_deleted":"0","num_feature":"2","num_nodes":"101","size_leaf_vector":"1"}},{"base_weights":[1.3484801E-4,-3.5795127E-3,2.4328636E-2,-6.6843875E-2,-2.4088009E-3,6.781632E-2,3.4859492E-3,-2.9324448E-1,-5.106195E-2,-9.605812E-3,6.6905143E-3,1.7303167E-1,1.3065318E-2,-2.5537822E-1,1.5486192E-2,-3.7174318E-2,-1.11017905E-1,2.1930452E-1,-8.062987E-2,-4.5180204E-3,-1.6849633E-1,1.8802261E-1,3.6252118E-3,3.0231632E-2,3.7350047E-1,-1.9630027E-1,2.487213E-2,-7.091753E-1,-7.456356E-2,-2.041784E-2,3.529946E-2,4.3163978E-2,2.2000144E-1,-2.8656656E-1,-5.4321937E-2,1.2168972E-3,-4.406331E-2,-2.0380394E-1,1.93478E-1,5.8763064E-2,3.9582697E-1,6.074359E-3,-1.0554949E-1,-3.5830513E-1,1.5198891E-1,7.2417885E-1,6.094107E-2,-4.6719056E-2,7.8511454E-2,-2.663235E-1,-3.887705E-1,1.1916498E-1,-2.4765426E-1,-5.455805E-4,-4.4491196E-1,1.04627274E-1,2.273441E-2,-1.5390424E-2,5.9306227E-2,-2.689915E-2,-9.509422E-2,-7.7559305E-3,-7.088571E-2,-5.0703896E-4,9.637459E-2,-1.17864065E-1,-3.1401485E-3,-5.503353E-2,-2.5656453E-1,2.650195E-1,-1.7397905E-2,6.15711E-2,-1.8304902E-1,5.1085547E-2,2.0539841E-1,-9.60905E-3,3.7275674E-3,-1.9457573E-1,-1.7792402E-2,-4.9624573E-2,-2.0531021E-1,6.108795E-2,-1.1843543E-1,2.6708737E-1,9.042954E-2,-1.6594743E-2,2.2297414E-1,-2.4494086E-1,3.9017743E-3,1.6089477E-1,5.4345373E-3,1.924616E-1,-2.4201973E-1,-5.245733E-3,1.1905139E-1,-1.1305576E-1,1.0330039E-2,-3.450558E-3,1.2640865E-1,-2.4546158E-1,-3.441452E-2,9.847092E-2,1.6714832E-2,-3.4081053E-2,9.200514E-3],"categories":[],"categories_nodes":[],"categories_segments":[],"categories_sizes":[],"default_left":[0,0,0,0,0,0,0,0,0,0,0,0,0,0,0,0,0,0,0,0,0,0,0,0,0,0,0,0,0,0,0,0,0,0,0,0,0,0,0,0,0,0,0,0,0,0,0,0,0,0,0,0,0,0,0,0,0,0,0,0,0,0,0,0,0,0,0,0,0,0,0,0,0,0,0,0,0,0,0,0,0,0,0,0,0,0,0,0,0,0,0,0,0,0,0,0,0,0,0,0,0,0,0,0,0],"id":14,"left_children":[1,3,5,7,9,11,13,15,17,19,21,23,25,27,29,-1,-1,31,33,35,37,39,41,43,45,-1,47,49,51,53,55,57,-1,59,61,63,65,67,69,71,73,75,77,79,81,83,85,87,89,-1,91,93,95,97,99,101,103,-1,-1,-1,-1,-1,-1,-1,-1,-1,-1,-1,-1,-1,-1,-1,-1,-1,-1,-1,-1,-1,-1,-1,-1,-1,-1,-1,-1,-1,-1,-1,-1,-1,-1,-1,-1,-1,-1,-1,-1,-1,-1,-1,-1,-1,-1,-1,-1],"loss_changes":[7.190926E-1,5.1362324E-1,9.650797E-1,4.3522906E-1,4.4616762E-1,1.9851621E0,2.243693E0,5.8201313E-2,9.6898925E-1,3.0743992E0,1.6718341E0,3.3666883E0,1.8128829E0,2.5728223E0,4.915704E-1,0E0,0E0,1.054852E0,5.6955224E-1,8.362246E-1,1.5475245E0,1.3197749E0,7.921006E-1,3.3659608E0,5.3266516E0,0E0,8.676911E-1,1.6980267E-1,8.342943E-1,2.0749288E0,3.8526428E-1,1.561128E-1,0E0,4.3441832E-2,4.9638E-1,2.997171E0,5.4686165E0,1.2754083E0,1.9596758E0,3.260597E0,1.1211526E0,7.012205E-1,1.5937362E0,9.559951E-1,1.6050285E0,1.3467779E0,2.1828282E0,4.4700313E0,3.557097E0,0E0,2.6707E0,4.6226966E-1,4.8676443E-1,1.0957657E0,1.2620027E0,7.254268E-1,4.12367E-1,0E0,0E0,0E0,0E0,0E0,0E0,0E0,0E0,0E0,0E0,0E0,0E0,0E0,0E0,0E0,0E0,0E0,0E0,0E0,0E0,0E0,0E0,0E0,0E0,0E0,0E0,0E0,0E0,0E0,0E0,0E0,0E0,0E0,0E0,0E0,0E0,0E0,0E0,0E0,0E0,0E0,0E0,0E0,0E0,0E0,0E0,0E0,0E0],"parents":[2147483647,0,0,1,1,2,2,3,3,4,4,5,5,6,6,7,7,8,8,9,9,10,10,11,11,12,12,13,13,14,14,17,17,18,18,19,19,20,20,21,21,22,22,23,23,24,24,26,26,27,27,28,28,29,29,30,30,31,31,33,33,34,34,35,35,36,36,37,37,38,38,39,39,40,40,41,41,42,42,43,43,44,44,45,45,46,46,47,47,48,48,50,50,51,51,52,52,53,53,54,54,55,55,56,56],"right_children":[2,4,6,8,10,12,14,16,18,20,22,24,26,28,30,-1,-1,32,34,36,38,40,42,44,46,-1,48,50,52,54,56,58,-1,60,62,64,66,68,70,72,74,76,78,80,82,84,86,88,90,-1,92,94,96,98,100,102,104,-1,-1,-1,-1,-1,-1,-1,-1,-1,-1,-1,-1,-1,-1,-1,-1,-1,-1,-1,-1,-1,-1,-1,-1,-1,-1,-1,-1,-1,-1,-1,-1,-1,-1,-1,-1,-1,-1,-1,-1,-1,-1,-1,-1,-1,-1,-1,-1],"split_conditions":[3.5613627E0,2.0936208E0,3.6545324E0,1.1442707E0,1.4382944E0,1.4429959E0,3.663672E0,1.8843069E0,1.1962442E0,1.4265292E0,1.4429959E0,1.328416E0,1.452535E0,1.3731515E0,1.657419E0,-3.7174318E-2,-1.11017905E-1,1.1905526E0,1.2224113E0,3.3149545E0,3.4194863E0,3.1435995E0,3.5384467E0,3.5796657E0,3.5959156E0,-1.9630027E-1,3.6039147E0,1.2815192E0,1.9414268E0,1.601052E0,3.706546E0,1.1816871E0,2.2000144E-1,1.8843069E0,1.5577962E0,3.3061993E0,3.334054E0,3.3829286E0,3.4631166E0,3.0454793E0,1.4403924E0,2.70861E0,1.4754043E0,1.2874475E0,1.3152348E0,1.4006585E0,3.6360617E0,1.4910877E0,1.4992844E0,-2.663235E-1,1.3332403E0,1.9109178E0,2.0922446E0,1.581779E0,3.706546E0,1.773061E0,3.7178712E0,-1.5390424E-2,5.9306227E-2,-2.689915E-2,-9.509422E-2,-7.7559305E-3,-7.088571E-2,-5.0703896E-4,9.637459E-2,-1.17864065E-1,-3.1401485E-3,-5.503353E-2,-2.5656453E-1,2.650195E-1,-1.7397905E-2,6.15711E-2,-1.8304902E-1,5.1085547E-2,2.0539841E-1,-9.60905E-3,3.7275674E-3,-1.9457573E-1,-1.7792402E-2,-4.9624573E-2,-2.0531021E-1,6.108795E-2,-1.1843543E-1,2.6708737E-1,9.042954E-2,-1.6594743E-2,2.2297414E-1,-2.4494086E-1,3.9017743E-3,1.6089477E-1,5.4345373E-3,1.924616E-1,-2.4201973E-1,-5.245733E-3,1.1905139E-1,-1.1305576E-1,1.0330039E-2,-3.450558E-3,1.2640865E-1,-2.4546158E-1,-3.441452E-2,9.847092E-2,1.6714832E-2,-3.4081053E-2,9.200514E-3],"split_indices":[0,0,0,1,1,1,0,0,1,1,1,1,1,1,1,0,0,1,1,0,0,0,0,0,0,0,0,1,1,1,0,1,0,0,1,0,0,0,0,0,1,0,1,1,1,1,0,1,1,0,1,1,1,1,0,1,0,0,0,0,0,0,0,0,0,0,0,0,0,0,0,0,0,0,0,0,0,0,0,0,0,0,0,0,0,0,0,0,0,0,0,0,0,0,0,0,0,0,0,0,0,0,0,0,0],"split_type":[0,0,0,0,0,0,0,0,0,0,0,0,0,0,0,0,0,0,0,0,0,0,0,0,0,0,0,0,0,0,0,0,0,0,0,0,0,0,0,0,0,0,0,0,0,0,0,0,0,0,0,0,0,0,0,0,0,0,0,0,0,0,0,0,0,0,0,0,0,0,0,0,0,0,0,0,0,0,0,0,0,0,0,0,0,0,0,0,0,0,0,0,0,0,0,0,0,0,0,0,0,0,0,0,0],"sum_hessian":[8E3,6.936E3,1.064E3,1.25E2,6.811E3,3.44E2,7.2E2,7E0,1.18E2,3.803E3,3.008E3,1.17E2,2.27E2,3.1E1,6.89E2,3E0,4E0,1.1E1,1.07E2,3.686E3,1.17E2,4.9E1,2.959E3,6.9E1,4.8E1,3E0,2.24E2,8E0,2.3E1,2.45E2,4.44E2,9E0,2E0,1.1E1,9.6E1,3.22E3,4.66E2,1.07E2,1E1,3.1E1,1.8E1,2.895E3,6.4E1,1.6E1,5.3E1,2.2E1,2.6E1,9.6E1,1.28E2,4E0,4E0,1.1E1,1.2E1,2.35E2,1E1,6.7E1,3.77E2,6E0,3E0,2E0,9E0,8.4E1,1.2E1,3.192E3,2.8E1,4E1,4.26E2,1.05E2,2E0,2E0,8E0,2.6E1,5E0,1.1E1,7E0,4.13E2,2.482E3,4E0,6E1,1.1E1,5E0,4.9E1,4E0,1.5E1,7E0,2.3E1,3E0,6E0,9E1,1.4E1,1.14E2,1E0,3E0,8E0,3E0,8E0,4E0,2.3E2,5E0,4E0,6E0,1.1E1,5.6E1,2E1,3.57E2],"tree_param":{"num_deleted":"0","num_feature":"2","num_nodes":"105","size_leaf_vector":"1"}},{"base_weights":[1.3411566E-5,-1.54804615E-2,3.2309722E-3,-3.1424835E-3,-8.029664E-2,1.08919024E-1,1.10891204E-4,-1.15215685E-2,1.4254387E-1,-5.111867E-2,-2.9604316E-1,4.5871135E-2,3.3692548E-1,-6.420348E-2,1.3013153E-3,-1.784759E-3,-1.683476E-1,1.347008E-2,4.4074264E-1,-7.662762E-2,4.8458058E-1,2.4928634E-1,-5.994109E-1,-2.2032931E-3,2.3824228E-1,6.2146825E-1,7.0821643E-3,-3.5427075E-2,-2.2050552E-1,-1.0481327E-2,6.7813755E-3,-2.0862624E-2,3.1695295E-2,-2.1371303E-1,1.6966867E-1,3.3636305E-1,-2.1424979E-1,5.849731E-1,-8.0097295E-2,4.1706603E-2,-1.2011972E-1,-1.0719854E-1,7.9833657E-1,-5.3486783E-2,1.6882706E-1,-1.0310591E0,-1.9415124E-1,1.780334E-2,-3.88631E-1,5.4436445E-1,-2.0394553E-1,4.098089E-1,3.352775E-1,-1.01005316E-1,1.3940503E-1,-7.043197E-2,3.263371E-1,-3.226659E-1,-1.261611E-1,3.7169731E-3,-1.1166645E-1,1.4324489E-1,3.8405566E-3,2.5308914E-3,-2.8083604E-2,2.0192929E-2,-3.9025016E-2,-2.6922481E-2,-1.4490958E-1,-4.2555526E-2,1.4200315E-1,-2.2761896E-2,-2.0577694E-1,2.9458073E-1,1.3451053E-1,-1.8131769E-1,6.062236E-2,-4.5363404E-2,3.1482954E-2,-1.8157792E-1,-2.1888776E-2,-7.143971E-2,4.747057E-3,2.7817625E-1,1.0810028E-1,-6.672817E-2,1.1868232E-1,-3.845226E-1,-1.8729033E-1,1.0223666E-1,-8.743633E-2,-2.092113E-2,5.389176E-2,-1.911918E-1,-3.1490102E-2,8.389241E-2,4.202955E-1,-1.4901699E-1,1.736956E-1,3.7043208E-1,4.3449797E-2,2.7081156E-2,-7.3177636E-2,-8.668236E-3,-7.5596265E-2,1.5967296E-1,4.0403064E-2,-1.0695094E-2,-1.0757257E-1,-4.114266E-2,-1.53492335E-2,4.672997E-3,-1.7720375E-2,-1.9145899E-2,-6.2680475E-2,-1.1484067E-2,6.994412E-2,-3.1833998E-3,3.0334152E-3],"categories":[],"categories_nodes":[],"categories_segments":[],"categories_sizes":[],"default_left":[0,0,0,0,0,0,0,0,0,0,0,0,0,0,0,0,0,0,0,0,0,0,0,0,0,0,0,0,0,0,0,0,0,0,0,0,0,0,0,0,0,0,0,0,0,0,0,0,0,0,0,0,0,0,0,0,0,0,0,0,0,0,0,0,0,0,0,0,0,0,0,0,0,0,0,0,0,0,0,0,0,0,0,0,0,0,0,0,0,0,0,0,0,0,0,0,0,0,0,0,0,0,0,0,0,0,0,0,0,0,0,0,0,0,0,0,0,0,0],"id":15,"left_children":[1,3,5,7,9,11,13,15,17,19,21,23,25,27,29,31,33,35,37,39,41,43,45,47,49,51,53,55,57,59,61,63,65,67,-1,69,71,73,75,77,79,81,83,85,-1,87,89,91,93,95,97,99,-1,101,-1,103,105,107,109,111,113,115,117,-1,-1,-1,-1,-1,-1,-1,-1,-1,-1,-1,-1,-1,-1,-1,-1,-1,-1,-1,-1,-1,-1,-1,-1,-1,-1,-1,-1,-1,-1,-1,-1,-1,-1,-1,-1,-1,-1,-1,-1,-1,-1,-1,-1,-1,-1,-1,-1,-1,-1,-1,-1,-1,-1,-1,-1],"loss_changes":[3.989197E-1,1.1001357E0,2.1849463E0,1.4140134E0,1.3697771E0,2.7158568E0,4.929091E-1,1.6717482E0,2.4189105E0,2.701832E0,4.4507446E0,1.3877448E0,3.843635E0,5.1843184E-1,4.0821543E-1,6.598285E-1,2.2516928E0,3.380877E0,1.4741538E0,9.6742475E-1,1.7566485E0,9.792046E-1,2.7736225E0,9.4238406E-1,4.171925E0,1.8522024E0,1.0361547E0,1.2893364E0,1.3278079E-1,2.883785E0,1.7311219E0,1.403303E0,2.1693788E0,1.9933107E0,0E0,1.3117626E0,1.7102106E0,3.731351E-1,8.6183864E-1,6.380416E-1,3.0900993E0,6.819909E-2,4.675865E-3,5.432153E-1,0E0,1.5544891E-2,6.1983836E-1,1.6559205E0,3.563447E-1,3.6900373E0,3.267517E0,3.5372968E0,0E0,4.8675114E-1,0E0,6.8653035E-1,2.8349513E-1,6.966901E-2,2.0422935E-3,1.3121763E0,1.1362E0,1.494E0,3.8299915E-1,0E0,0E0,0E0,0E0,0E0,0E0,0E0,0E0,0E0,0E0,0E0,0E0,0E0,0E0,0E0,0E0,0E0,0E0,0E0,0E0,0E0,0E0,0E0,0E0,0E0,0E0,0E0,0E0,0E0,0E0,0E0,0E0,0E0,0E0,0E0,0E0,0E0,0E0,0E0,0E0,0E0,0E0,0E0,0E0,0E0,0E0,0E0,0E0,0E0,0E0,0E0,0E0,0E0,0E0,0E0,0E0],"parents":[2147483647,0,0,1,1,2,2,3,3,4,4,5,5,6,6,7,7,8,8,9,9,10,10,11,11,12,12,13,13,14,14,15,15,16,16,17,17,18,18,19,19,20,20,21,21,22,22,23,23,24,24,25,25,26,26,27,27,28,28,29,29,30,30,31,31,32,32,33,33,35,35,36,36,37,37,38,38,39,39,40,40,41,41,42,42,43,43,45,45,46,46,47,47,48,48,49,49,50,50,51,51,53,53,55,55,56,56,57,57,58,58,59,59,60,60,61,61,62,62],"right_children":[2,4,6,8,10,12,14,16,18,20,22,24,26,28,30,32,34,36,38,40,42,44,46,48,50,52,54,56,58,60,62,64,66,68,-1,70,72,74,76,78,80,82,84,86,-1,88,90,92,94,96,98,100,-1,102,-1,104,106,108,110,112,114,116,118,-1,-1,-1,-1,-1,-1,-1,-1,-1,-1,-1,-1,-1,-1,-1,-1,-1,-1,-1,-1,-1,-1,-1,-1,-1,-1,-1,-1,-1,-1,-1,-1,-1,-1,-1,-1,-1,-1,-1,-1,-1,-1,-1,-1,-1,-1,-1,-1,-1,-1,-1,-1,-1,-1,-1,-1],"split_conditions":[1.262997E0,1.249999E0,1.2736092E0,1.2459245E0,3.3883288E0,3.2801268E0,2.1753657E0,1.2428046E0,3.191371E0,3.334054E0,1.2542764E0,1.2719595E0,3.52612E0,1.5577962E0,1.394145E0,1.2156948E0,3.5796657E0,2.7372005E0,3.5450478E0,2.595754E0,1.2529681E0,1.2518631E0,3.52612E0,3.2298646E0,2.7991185E0,3.4517186E0,1.2719595E0,1.5280662E0,1.6265167E0,1.377718E0,1.4006585E0,1.1962442E0,3.2958307E0,3.1484125E0,1.6966867E-1,2.3186862E0,3.1065924E0,3.2449088E0,3.6360617E0,1.2529681E0,2.6498654E0,3.3385303E0,1.2586961E0,3.6039147E0,1.6882706E-1,3.4352539E0,1.2561569E0,2.9435856E0,3.2381215E0,2.7018635E0,3.0879152E0,3.3008711E0,3.352775E-1,1.2668781E0,1.3940503E-1,1.4492681E0,1.987166E0,1.8843069E0,2.0936208E0,3.395345E0,3.1528323E0,2.8729835E0,2.9757338E0,2.5308914E-3,-2.8083604E-2,2.0192929E-2,-3.9025016E-2,-2.6922481E-2,-1.4490958E-1,-4.2555526E-2,1.4200315E-1,-2.2761896E-2,-2.0577694E-1,2.9458073E-1,1.3451053E-1,-1.8131769E-1,6.062236E-2,-4.5363404E-2,3.1482954E-2,-1.8157792E-1,-2.1888776E-2,-7.143971E-2,4.747057E-3,2.7817625E-1,1.0810028E-1,-6.672817E-2,1.1868232E-1,-3.845226E-1,-1.8729033E-1,1.0223666E-1,-8.743633E-2,-2.092113E-2,5.389176E-2,-1.911918E-1,-3.1490102E-2,